{"learner":{"attributes":{"best_iteration":"64","best_ntree_limit":"65","scikit_learn":"{\"objective\": \"reg:squarederror\", \"max_depth\": 3, \"max_leaves\": null, \"max_bin\": null, \"grow_policy\": null, \"learning_rate\": 0.13, \"verbosity\": null, \"booster\": \"gbtree\", \"tree_method\": \"hist\", \"gamma\": null, \"min_child_weight\": null, \"max_delta_step\": null, \"subsample\": null, \"sampling_method\": null, \"colsample_bytree\": null, \"colsample_bylevel\": null, \"colsample_bynode\": null, \"reg_alpha\": null, \"reg_lambda\": null, \"scale_pos_weight\": null, \"base_score\": null, \"missing\": NaN, \"num_parallel_tree\": null, \"random_state\": 42, \"n_jobs\": null, \"monotone_constraints\": null, \"interaction_constraints\": null, \"importance_type\": null, \"gpu_id\": null, \"validate_parameters\": null, \"predictor\": null, \"enable_categorical\": true, \"feature_types\": null, \"max_cat_to_onehot\": null, \"max_cat_threshold\": null, \"eval_metric\": null, \"early_stopping_rounds\": null, \"callbacks\": null, \"_estimator_type\": \"regressor\"}"},"feature_names":["brand_name","num_cores","ram_capacity","internal_memory","battery_capacity","fast_charging_available","primary_camera_rear","primary_camera_front"],"feature_types":["c","float","float","float","float","int","float","float"],"gradient_booster":{"model":{"gbtree_model_param":{"num_parallel_tree":"1","num_trees":"65","size_leaf_vector":"0"},"tree_info":[0,0,0,0,0,0,0,0,0,0,0,0,0,0,0,0,0,0,0,0,0,0,0,0,0,0,0,0,0,0,0,0,0,0,0,0,0,0,0,0,0,0,0,0,0,0,0,0,0,0,0,0,0,0,0,0,0,0,0,0,0,0,0,0,0],"trees":[{"base_weights":[2.4945767E2,1.667627E2,3.5584622E2,6.0819416E1,1.5782721E2,3.3087012E2,4.8844116E2,1.5753226E1,2.6561605E1,4.9950294E1,3.6345947E1,2.6646532E1,6.445766E1],"categories":[2,3,4,5,6,7,8,9,10,11,12,13,14,15,0,2,3,4,8,10,11,13,14],"categories_nodes":[1,5],"categories_segments":[0,14],"categories_sizes":[14,9],"default_left":[0,1,0,0,0,1,0,0,0,0,0,0,0],"id":0,"left_children":[1,3,5,-1,7,9,11,-1,-1,-1,-1,-1,-1],"loss_changes":[6.697364E6,1.093747E6,9.47812E5,0E0,6.95988E5,6.72554E5,5.161E3,0E0,0E0,0E0,0E0,0E0,0E0],"parents":[2147483647,0,0,1,1,2,2,4,4,5,5,6,6],"right_children":[2,4,6,-1,8,10,12,-1,-1,-1,-1,-1,-1],"split_conditions":[8E0,NaN,1.2E1,6.0819416E1,6E0,NaN,4.23E3,1.5753226E1,2.6561605E1,4.9950294E1,3.6345947E1,2.6646532E1,6.445766E1],"split_indices":[2,0,2,0,2,0,4,0,0,0,0,0,0],"split_type":[0,1,0,0,0,1,0,0,0,0,0,0,0],"sum_hessian":[7.67E2,4.33E2,3.34E2,1.1E1,4.22E2,2.84E2,5E1,2.38E2,1.84E2,1.36E2,1.48E2,2E0,4.8E1],"tree_param":{"num_deleted":"0","num_feature":"8","num_nodes":"13","size_leaf_vector":"0"}},{"base_weights":[2.1739346E2,1.4532118E2,3.1011575E2,5.3571766E1,1.3740971E2,2.881598E2,5.5474922E1,1.2997323E1,2.2736822E1,4.324143E1,3.1334888E1],"categories":[2,3,4,5,6,7,8,9,10,11,12,13,14,15,0,2,4,8,10,11,13,14],"categories_nodes":[1,5],"categories_segments":[0,14],"categories_sizes":[14,8],"default_left":[0,1,0,0,0,1,0,0,0,0,0],"id":1,"left_children":[1,3,5,-1,7,9,-1,-1,-1,-1,-1],"loss_changes":[5.087256E6,8.59348E5,7.3476E5,0E0,5.76077E5,5.17002E5,0E0,0E0,0E0,0E0,0E0],"parents":[2147483647,0,0,1,1,2,2,4,4,5,5],"right_children":[2,4,6,-1,8,10,-1,-1,-1,-1,-1],"split_conditions":[8E0,NaN,1.2E1,5.3571766E1,1.28E2,NaN,5.5474922E1,1.2997323E1,2.2736822E1,4.324143E1,3.1334888E1],"split_indices":[2,0,2,0,3,0,0,0,0,0,0],"split_type":[0,1,0,0,0,1,0,0,0,0,0],"sum_hessian":[7.67E2,4.33E2,3.34E2,1.1E1,4.22E2,2.84E2,5E1,2.13E2,2.09E2,1.43E2,1.41E2],"tree_param":{"num_deleted":"0","num_feature":"8","num_nodes":"11","size_leaf_vector":"0"}},{"base_weights":[1.8941792E2,1.266352E2,2.7018893E2,5.232645E1,1.20509575E2,2.509607E2,3.72343E2,1.1766411E1,2.054068E1,3.7923805E1,2.7533773E1,1.9529339E1,4.918461E1],"categories":[1,2,3,4,5,6,7,8,9,10,11,12,13,14,15,0,2,3,4,8,10,11,13,14],"categories_nodes":[1,5],"categories_segments":[0,15],"categories_sizes":[15,9],"default_left":[0,1,0,0,0,1,0,0,0,0,0,0,0],"id":2,"left_children":[1,3,5,-1,7,9,11,-1,-1,-1,-1,-1,-1],"loss_changes":[3.86033E6,6.84916E5,5.64576E5,0E0,4.64873E5,3.93158E5,1.1134E4,0E0,0E0,0E0,0E0,0E0,0E0],"parents":[2147483647,0,0,1,1,2,2,4,4,5,5,6,6],"right_children":[2,4,6,-1,8,10,12,-1,-1,-1,-1,-1,-1],"split_conditions":[8E0,NaN,1.2E1,5.232645E1,6E0,NaN,4.23E3,1.1766411E1,2.054068E1,3.7923805E1,2.7533773E1,1.9529339E1,4.918461E1],"split_indices":[2,0,2,0,2,0,4,0,0,0,0,0,0],"split_type":[0,1,0,0,0,1,0,0,0,0,0,0,0],"sum_hessian":[7.67E2,4.33E2,3.34E2,8E0,4.25E2,2.84E2,5E1,2.38E2,1.87E2,1.36E2,1.48E2,2E0,4.8E1],"tree_param":{"num_deleted":"0","num_feature":"8","num_nodes":"13","size_leaf_vector":"0"}},{"base_weights":[1.6507849E2,1.1036764E2,2.3546487E2,3.229636E2,1.0407563E2,2.1856548E2,3.2528574E2,4.6279835E1,2.182617E1,8.17064E0,1.647493E1,2.4308035E1,3.3777065E1,4.271592E1,1.0424232E1],"categories":[2,3,4,5,6,7,8,9,10,11,12,13,14,15,1,2,3,4,5,6,7,8,9,10,11,12,13,14,15,0,3,4,10],"categories_nodes":[1,3,6],"categories_segments":[0,14,29],"categories_sizes":[14,15,4],"default_left":[0,1,0,1,0,0,1,0,0,0,0,0,0,0,0],"id":3,"left_children":[1,3,5,7,9,11,13,-1,-1,-1,-1,-1,-1,-1,-1],"loss_changes":[2.931504E6,5.4693E5,4.37406E5,1.703125E3,3.870855E5,3.22759E5,1.488E4,0E0,0E0,0E0,0E0,0E0,0E0,0E0,0E0],"parents":[2147483647,0,0,1,1,2,2,3,3,4,4,5,5,6,6],"right_children":[2,4,6,8,10,12,14,-1,-1,-1,-1,-1,-1,-1,-1],"split_conditions":[8E0,NaN,1.2E1,NaN,4.8E1,2E1,NaN,4.6279835E1,2.182617E1,8.17064E0,1.647493E1,2.4308035E1,3.3777065E1,4.271592E1,1.0424232E1],"split_indices":[2,0,2,0,6,7,0,0,0,0,0,0,0,0,0],"split_type":[0,1,0,1,0,0,1,0,0,0,0,0,0,0,0],"sum_hessian":[7.67E2,4.33E2,3.34E2,1.1E1,4.22E2,2.84E2,5E1,8E0,3E0,1.51E2,2.71E2,1.64E2,1.2E2,4.9E1,1E0],"tree_param":{"num_deleted":"0","num_feature":"8","num_nodes":"15","size_leaf_vector":"0"}},{"base_weights":[1.438839E2,9.623356E1,2.0518646E2,3.7265E1,9.060406E1,2.531387E2,1.7653241E2,8.153632E0,1.5416381E1,-2.270682E0,3.3214993E1,1.6115551E1,2.9443832E1],"categories":[2,3,4,5,6,7,8,9,10,11,12,13,14,15,0,2,3,4,8,10,11,13,14,15],"categories_nodes":[1,2],"categories_segments":[0,14],"categories_sizes":[14,10],"default_left":[0,1,1,0,0,0,0,0,0,0,0,0,0],"id":4,"left_children":[1,3,5,-1,7,9,11,-1,-1,-1,-1,-1,-1],"loss_changes":[2.22365E6,4.39263E5,4.15611E5,0E0,3.2262325E5,8.3056E4,5.312945E5,0E0,0E0,0E0,0E0,0E0,0E0],"parents":[2147483647,0,0,1,1,2,2,4,4,5,5,6,6],"right_children":[2,4,6,-1,8,10,12,-1,-1,-1,-1,-1,-1],"split_conditions":[8E0,NaN,NaN,3.7265E1,1.28E2,6E0,2E1,8.153632E0,1.5416381E1,-2.270682E0,3.3214993E1,1.6115551E1,2.9443832E1],"split_indices":[2,0,0,0,3,1,7,0,0,0,0,0,0],"split_type":[0,1,1,0,0,0,0,0,0,0,0,0,0],"sum_hessian":[7.67E2,4.33E2,3.34E2,1.1E1,4.22E2,1.22E2,2.12E2,2.13E2,2.09E2,1E0,1.21E2,1.05E2,1.07E2],"tree_param":{"num_deleted":"0","num_feature":"8","num_nodes":"13","size_leaf_vector":"0"}},{"base_weights":[1.2535781E2,8.3863365E1,1.7874059E2,3.662577E1,7.9486084E1,2.2837901E2,1.5694998E2,7.2102127E0,1.3793189E1,2.7079327E1,4.0839043E1,1.6898037E1,2.7287659E1],"categories":[1,2,3,4,5,6,7,8,9,10,11,12,13,14,15,0,2,3,4,5,8,10,11,13,14,15],"categories_nodes":[1,2],"categories_segments":[0,15],"categories_sizes":[15,11],"default_left":[0,1,1,0,0,0,0,0,0,0,0,0,0],"id":5,"left_children":[1,3,5,-1,7,9,11,-1,-1,-1,-1,-1,-1],"loss_changes":[1.686199E6,3.53514E5,3.2651E5,0E0,2.664905E5,1.067535E5,3.09709E5,0E0,0E0,0E0,0E0,0E0,0E0],"parents":[2147483647,0,0,1,1,2,2,4,4,5,5,6,6],"right_children":[2,4,6,-1,8,10,12,-1,-1,-1,-1,-1,-1],"split_conditions":[8E0,NaN,NaN,3.662577E1,1E1,1.2E1,2.56E2,7.2102127E0,1.3793189E1,2.7079327E1,4.0839043E1,1.6898037E1,2.7287659E1],"split_indices":[2,0,0,0,7,2,3,0,0,0,0,0,0],"split_type":[0,1,1,0,0,0,0,0,0,0,0,0,0],"sum_hessian":[7.67E2,4.33E2,3.34E2,8E0,4.25E2,9.9E1,2.35E2,2.25E2,2E2,8.3E1,1.6E1,1.58E2,7.7E1],"tree_param":{"num_deleted":"0","num_feature":"8","num_nodes":"13","size_leaf_vector":"0"}},{"base_weights":[1.09282295E2,7.309391E1,1.5583894E2,2.2627452E2,6.857557E1,1.8421277E2,1.2619215E2,3.2393456E1,1.5361783E1,4.8622303E0,1.1146733E1,2.216709E1,3.1779127E1,1.1526709E1,2.0975466E1],"categories":[2,3,4,5,6,7,8,9,10,11,12,13,14,15,0,3,4,8,10,11,13,14,1,2,3,4,5,6,7,8,9,10,11,12,13,14,15],"categories_nodes":[1,2,3],"categories_segments":[0,14,22],"categories_sizes":[14,8,15],"default_left":[0,1,1,1,0,0,0,0,0,0,0,0,0,0,0],"id":6,"left_children":[1,3,5,7,9,11,13,-1,-1,-1,-1,-1,-1,-1,-1],"loss_changes":[1.282543E6,2.848645E5,2.58554E5,2.704375E2,2.2318625E5,9.7761E4,2.0601575E5,0E0,0E0,0E0,0E0,0E0,0E0,0E0,0E0],"parents":[2147483647,0,0,1,1,2,2,3,3,4,4,5,5,6,6],"right_children":[2,4,6,8,10,12,14,-1,-1,-1,-1,-1,-1,-1,-1],"split_conditions":[8E0,NaN,NaN,NaN,4.8E1,1.2E1,2E1,3.2393456E1,1.5361783E1,4.8622303E0,1.1146733E1,2.216709E1,3.1779127E1,1.1526709E1,2.0975466E1],"split_indices":[2,0,0,0,6,2,7,0,0,0,0,0,0,0,0],"split_type":[0,1,1,1,0,0,0,0,0,0,0,0,0,0,0],"sum_hessian":[7.67E2,4.33E2,3.34E2,1.1E1,4.22E2,1.68E2,1.66E2,8E0,3E0,1.51E2,2.71E2,1.4E2,2.8E1,8.2E1,8.4E1],"tree_param":{"num_deleted":"0","num_feature":"8","num_nodes":"15","size_leaf_vector":"0"}},{"base_weights":[9.5271194E1,4.2237247E1,1.2003425E2,1.6977968E1,3.8330654E1,3.813111E1,1.12919815E2,2.8303711E0,6.6449504E0,1.1370376E1,2.0572968E1],"categories":[2,4,5,6,8,9,10,11,12,13,14,15],"categories_nodes":[1],"categories_segments":[0],"categories_sizes":[12],"default_left":[0,1,0,0,0,0,0,0,0,0,0],"id":7,"left_children":[1,3,5,-1,7,-1,9,-1,-1,-1,-1],"loss_changes":[1.0035315E6,7.991234E4,6.11635E5,0E0,4.905778E4,0E0,5.67769E5,0E0,0E0,0E0,0E0],"parents":[2147483647,0,0,1,1,2,2,4,4,6,6],"right_children":[2,4,6,-1,8,-1,10,-1,-1,-1,-1],"split_conditions":[1E1,NaN,1.3E1,1.6977968E1,7E0,3.813111E1,2E1,2.8303711E0,6.6449504E0,1.1370376E1,2.0572968E1],"split_indices":[7,0,7,0,7,0,7,0,0,0,0],"split_type":[0,1,0,0,0,0,0,0,0,0,0],"sum_hessian":[7.67E2,2.45E2,5.22E2,9E0,2.36E2,1.9E1,5.03E2,1.04E2,1.32E2,3.24E2,1.79E2],"tree_param":{"num_deleted":"0","num_feature":"8","num_nodes":"11","size_leaf_vector":"0"}},{"base_weights":[8.301163E1,5.444774E1,1.1976898E2,3.3968655E1,7.477029E1,1.0864354E2,1.7959213E2,1.5745224E1,3.8527243E0,1.9080475E1,7.6264315E0,1.7438381E1,1.0311463E1,1.6398737E1,2.6960032E1],"categories":[1,2,4,5,6,8,9,10,11,12,13,14,15],"categories_nodes":[3],"categories_segments":[0],"categories_sizes":[13],"default_left":[0,0,0,1,1,0,0,0,0,0,0,0,0,0,0],"id":8,"left_children":[1,3,5,7,9,11,13,-1,-1,-1,-1,-1,-1,-1,-1],"loss_changes":[7.998275E5,1.7808538E5,2.034505E5,7.871739E4,2.4302988E5,2.024585E5,4.9598375E4,0E0,0E0,0E0,0E0,0E0,0E0,0E0,0E0],"parents":[2147483647,0,0,1,1,2,2,3,3,4,4,5,5,6,6],"right_children":[2,4,6,8,10,12,14,-1,-1,-1,-1,-1,-1,-1,-1],"split_conditions":[8E0,1.28E2,1.2E1,NaN,5E3,4.98E3,4.52E3,1.5745224E1,3.8527243E0,1.9080475E1,7.6264315E0,1.7438381E1,1.0311463E1,1.6398737E1,2.6960032E1],"split_indices":[2,3,2,0,4,4,4,0,0,0,0,0,0,0,0],"split_type":[0,0,0,1,0,0,0,0,0,0,0,0,0,0,0],"sum_hessian":[7.67E2,4.33E2,3.34E2,2.17E2,2.16E2,2.84E2,5E1,9E0,2.08E2,3.8E1,1.78E2,1.5E2,1.34E2,1.9E1,3.1E1],"tree_param":{"num_deleted":"0","num_feature":"8","num_nodes":"15","size_leaf_vector":"0"}},{"base_weights":[7.237299E1,3.0795298E1,9.179124E1,1.30458975E1,2.7730434E1,2.3986249E2,8.573327E1,3.336573E0,1.5390628E1,1.4686617E1,3.3229176E1,8.499522E0,1.5860548E1],"categories":[2,4,5,6,8,9,10,11,12,13,14,15],"categories_nodes":[1],"categories_segments":[0],"categories_sizes":[12],"default_left":[0,1,0,0,0,0,0,0,0,0,0,0,0],"id":9,"left_children":[1,3,5,-1,7,9,11,-1,-1,-1,-1,-1,-1],"loss_changes":[6.1723025E5,4.966072E4,4.485725E5,0E0,4.1319375E4,1.1084E4,3.64075E5,0E0,0E0,0E0,0E0,0E0,0E0],"parents":[2147483647,0,0,1,1,2,2,4,4,5,5,6,6],"right_children":[2,4,6,-1,8,10,12,-1,-1,-1,-1,-1,-1],"split_conditions":[1E1,NaN,1.3E1,1.30458975E1,5.03E1,1.28E2,2E1,3.336573E0,1.5390628E1,1.4686617E1,3.3229176E1,8.499522E0,1.5860548E1],"split_indices":[7,0,7,0,6,3,7,0,0,0,0,0,0],"split_type":[0,1,0,0,0,0,0,0,0,0,0,0,0],"sum_hessian":[7.67E2,2.45E2,5.22E2,9E0,2.36E2,1.9E1,5.03E2,2.32E2,4E0,3E0,1.6E1,3.24E2,1.79E2],"tree_param":{"num_deleted":"0","num_feature":"8","num_nodes":"13","size_leaf_vector":"0"}},{"base_weights":[6.3099987E1,5.2842014E1,1.3032005E2,8.680205E1,3.8247456E1,1.7826418E2,1.0219416E2,4.8265185E0,1.4801115E1,4.2215376E0,1.270507E1,1.4040554E1,2.6147316E1,6.4182553E0,1.6131357E1],"categories":[1,2,4,8,10,11,13,14,15],"categories_nodes":[2],"categories_segments":[0],"categories_sizes":[9],"default_left":[0,1,1,0,0,0,0,0,0,0,0,0,0,0,0],"id":10,"left_children":[1,3,5,7,9,11,13,-1,-1,-1,-1,-1,-1,-1,-1],"loss_changes":[5.226815E5,3.27762E5,1.17978125E5,2.6454125E5,1.579115E5,3.6120625E4,7.020031E4,0E0,0E0,0E0,0E0,0E0,0E0,0E0,0E0],"parents":[2147483647,0,0,1,1,2,2,3,3,4,4,5,5,6,6],"right_children":[2,4,6,8,10,12,14,-1,-1,-1,-1,-1,-1,-1,-1],"split_conditions":[2.56E2,5E3,NaN,4.3E3,2E1,4.52E3,2E1,4.8265185E0,1.4801115E1,4.2215376E0,1.270507E1,1.4040554E1,2.6147316E1,6.4182553E0,1.6131357E1],"split_indices":[3,4,0,4,7,4,7,0,0,0,0,0,0,0,0],"split_type":[0,0,1,0,0,0,0,0,0,0,0,0,0,0,0],"sum_hessian":[7.67E2,6.67E2,1E2,1.99E2,4.68E2,3.5E1,6.5E1,7.1E1,1.28E2,4.28E2,4E1,1E1,2.5E1,2E1,4.5E1],"tree_param":{"num_deleted":"0","num_feature":"8","num_nodes":"15","size_leaf_vector":"0"}},{"base_weights":[5.5026276E1,4.6027275E1,1.1399961E2,7.561592E1,3.331138E1,1.5620616E2,8.925059E1,4.2077856E0,1.2891885E1,3.6740167E0,1.1093695E1,3.0996927E1,1.7582685E1,5.623615E0,1.4079872E1],"categories":[1,2,4,8,10,11,13,14,15],"categories_nodes":[2],"categories_segments":[0],"categories_sizes":[9],"default_left":[0,1,1,0,0,0,0,0,0,0,0,0,0,0,0],"id":11,"left_children":[1,3,5,7,9,11,13,-1,-1,-1,-1,-1,-1,-1,-1],"loss_changes":[4.023315E5,2.4881362E5,9.156025E4,2.0051062E5,1.20799125E5,2.9784062E4,5.3159188E4,0E0,0E0,0E0,0E0,0E0,0E0,0E0,0E0],"parents":[2147483647,0,0,1,1,2,2,3,3,4,4,5,5,6,6],"right_children":[2,4,6,8,10,12,14,-1,-1,-1,-1,-1,-1,-1,-1],"split_conditions":[2.56E2,5E3,NaN,4.3E3,2E1,1.6E1,2E1,4.2077856E0,1.2891885E1,3.6740167E0,1.1093695E1,3.0996927E1,1.7582685E1,5.623615E0,1.4079872E1],"split_indices":[3,4,0,4,7,7,7,0,0,0,0,0,0,0,0],"split_type":[0,0,1,0,0,0,0,0,0,0,0,0,0,0,0],"sum_hessian":[7.67E2,6.67E2,1E2,1.99E2,4.68E2,3.5E1,6.5E1,7.1E1,1.28E2,4.28E2,4E1,5E0,3E1,2E1,4.5E1],"tree_param":{"num_deleted":"0","num_feature":"8","num_nodes":"15","size_leaf_vector":"0"}},{"base_weights":[4.800327E1,1.7995907E1,6.2025845E1,8.427152E-1,2.8237797E1,1.8474413E2,5.7033005E1,2.8115814E0,-1.0976528E0,7.7599783E0,2.930615E0,1.05546055E1,2.5771547E1,6.191911E0,1.2544903E1],"categories":[1,2,3,4,5,6,7,9,10,11,13,15,0,2,4,5,6,7,8,10,11,12,13,14,15],"categories_nodes":[3,4],"categories_segments":[0,12],"categories_sizes":[12,13],"default_left":[0,0,0,1,1,0,0,0,0,0,0,0,0,0,0],"id":12,"left_children":[1,3,5,7,9,11,13,-1,-1,-1,-1,-1,-1,-1,-1],"loss_changes":[3.2204312E5,4.3193758E4,3.0991238E5,1.8132736E4,2.6238844E4,1.1861625E4,1.8243712E5,0E0,0E0,0E0,0E0,0E0,0E0,0E0,0E0],"parents":[2147483647,0,0,1,1,2,2,3,3,4,4,5,5,6,6],"right_children":[2,4,6,8,10,12,14,-1,-1,-1,-1,-1,-1,-1,-1],"split_conditions":[1E1,1E0,1.3E1,NaN,NaN,1.28E2,2.56E2,2.8115814E0,-1.0976528E0,7.7599783E0,2.930615E0,1.05546055E1,2.5771547E1,6.191911E0,1.2544903E1],"split_indices":[7,5,7,0,0,3,3,0,0,0,0,0,0,0,0],"split_type":[0,0,0,1,1,0,0,0,0,0,0,0,0,0,0],"sum_hessian":[7.67E2,2.45E2,5.22E2,9.2E1,1.53E2,1.9E1,5.03E2,2.8E1,6.4E1,2.2E1,1.31E2,3E0,1.6E1,4.08E2,9.5E1],"tree_param":{"num_deleted":"0","num_feature":"8","num_nodes":"15","size_leaf_vector":"0"}},{"base_weights":[4.185069E1,1.2399374E1,5.3426983E1,3.1435009E1,2.79663E0,8.2288795E1,3.966173E1,9.450729E0,3.184546E0,-1.7036463E0,1.2147772E0,1.4229644E1,7.7050366E0,3.5092134E0,8.626257E0],"categories":[1,4,6,9,10,11,13,15,2,4,5,8,10,11,13,14,15,1,2,4,5,6,8,9,10,11,12,13,14,15],"categories_nodes":[1,2,3],"categories_segments":[0,8,17],"categories_sizes":[8,9,13],"default_left":[0,1,1,1,0,1,0,0,0,0,0,0,0,0,0],"id":13,"left_children":[1,3,5,7,9,11,13,-1,-1,-1,-1,-1,-1,-1,-1],"loss_changes":[2.6117712E5,3.976125E4,2.15643E5,1.9119258E4,1.5324076E4,1.0421425E5,1.25016875E5,0E0,0E0,0E0,0E0,0E0,0E0,0E0,0E0],"parents":[2147483647,0,0,1,1,2,2,3,3,4,4,5,5,6,6],"right_children":[2,4,6,8,10,12,14,-1,-1,-1,-1,-1,-1,-1,-1],"split_conditions":[1.28E2,NaN,NaN,NaN,6.4E1,5E3,2E1,9.450729E0,3.184546E0,-1.7036463E0,1.2147772E0,1.4229644E1,7.7050366E0,3.5092134E0,8.626257E0],"split_indices":[3,0,0,0,3,4,7,0,0,0,0,0,0,0,0],"split_type":[0,1,1,1,0,0,0,0,0,0,0,0,0,0,0],"sum_hessian":[7.67E2,2.17E2,5.5E2,7.2E1,1.45E2,1.76E2,3.74E2,9E0,6.3E1,4.2E1,1.03E2,7.9E1,9.7E1,2.55E2,1.19E2],"tree_param":{"num_deleted":"0","num_feature":"8","num_nodes":"15","size_leaf_vector":"0"}},{"base_weights":[3.647028E1,2.9901823E1,7.955204E1,2.8451082E1,1.8522504E2,1.0743714E2,4.8960487E1,6.7241645E0,2.6417172E0,6.075883E0,2.646475E1,1.959196E1,6.022445E0,1.9844E1,4.075799E0],"categories":[2,3,4,5,6,8,10,11,13,14,15,1,2,4,6,8,9,10,11,13,0,1,2,3,4,5,7,8,10,11,12,14,15],"categories_nodes":[3,5,6],"categories_segments":[0,11,20],"categories_sizes":[11,9,13],"default_left":[0,0,0,1,0,1,1,0,0,0,0,0,0,0,0],"id":14,"left_children":[1,3,5,7,9,11,13,-1,-1,-1,-1,-1,-1,-1,-1],"loss_changes":[2.1495044E5,1.45253E5,8.089769E4,1.24399E5,5.7328594E3,1.305205E5,8.650002E4,0E0,0E0,0E0,0E0,0E0,0E0,0E0,0E0],"parents":[2147483647,0,0,1,1,2,2,3,3,4,4,5,5,6,6],"right_children":[2,4,6,8,10,12,14,-1,-1,-1,-1,-1,-1,-1,-1],"split_conditions":[2.56E2,2E2,5.4E1,NaN,8E0,NaN,NaN,6.7241645E0,2.6417172E0,6.075883E0,2.646475E1,1.959196E1,6.022445E0,1.9844E1,4.075799E0],"split_indices":[3,6,6,0,2,0,0,0,0,0,0,0,0,0,0],"split_type":[0,0,0,1,0,1,1,0,0,0,0,0,0,0,0],"sum_hessian":[7.67E2,6.67E2,1E2,6.62E2,5E0,5.1E1,4.9E1,1.7E2,4.92E2,1E0,4E0,2.9E1,2.2E1,6E0,4.3E1],"tree_param":{"num_deleted":"0","num_feature":"8","num_nodes":"15","size_leaf_vector":"0"}},{"base_weights":[3.1848204E1,9.023848E0,4.252305E1,-9.344806E0,1.513105E1,1.4175049E2,3.850108E1,9.189141E-1,-1.9153565E0,3.5749393E0,8.382396E-1,1.2189005E1,2.344722E1,3.5852923E0,7.5409484E0],"categories":[4,6,9,10,11,12,13,15,2,4,6,10,11,12,13,15],"categories_nodes":[3,4],"categories_segments":[0,8],"categories_sizes":[8,8],"default_left":[0,0,0,1,1,1,0,0,0,0,0,0,0,0,0],"id":15,"left_children":[1,3,5,7,9,11,13,-1,-1,-1,-1,-1,-1,-1,-1],"loss_changes":[1.8673681E5,2.7737943E4,2.0326638E5,5.5878496E3,1.9690984E4,2.0148531E4,1.0577494E5,0E0,0E0,0E0,0E0,0E0,0E0,0E0,0E0],"parents":[2147483647,0,0,1,1,2,2,3,3,4,4,5,5,6,6],"right_children":[2,4,6,8,10,12,14,-1,-1,-1,-1,-1,-1,-1,-1],"split_conditions":[1E1,6.4E1,1.3E1,NaN,NaN,4.3E3,2E1,9.189141E-1,-1.9153565E0,3.5749393E0,8.382396E-1,1.2189005E1,2.344722E1,3.5852923E0,7.5409484E0],"split_indices":[7,3,7,0,0,4,7,0,0,0,0,0,0,0,0],"split_type":[0,0,0,1,1,0,0,0,0,0,0,0,0,0,0],"sum_hessian":[7.67E2,2.45E2,5.22E2,6.1E1,1.84E2,1.9E1,5.03E2,1.5E1,4.6E1,7.5E1,1.09E2,1E1,9E0,3.24E2,1.79E2],"tree_param":{"num_deleted":"0","num_feature":"8","num_nodes":"15","size_leaf_vector":"0"}},{"base_weights":[2.7773272E1,5.4701033E0,3.654699E1,2.0823307E1,-2.2439644E0,5.6160336E1,2.4581512E1,4.618011E-1,4.014842E0,-2.6149907E0,1.1951483E-1,6.2074547E0,1.2352382E1,1.7247615E0,5.926782E0],"categories":[1,4,6,9,10,11,13,15,2,4,8,10,11,13,14,15],"categories_nodes":[1,2],"categories_segments":[0,8],"categories_sizes":[8,8],"default_left":[0,1,1,0,0,0,0,0,0,0,0,0,0,0,0],"id":16,"left_children":[1,3,5,7,9,11,13,-1,-1,-1,-1,-1,-1,-1,-1],"loss_changes":[1.5008362E5,2.58657E4,1.27929875E5,1.2573885E4,8.272254E3,6.3441938E4,8.116378E4,0E0,0E0,0E0,0E0,0E0,0E0,0E0,0E0],"parents":[2147483647,0,0,1,1,2,2,3,3,4,4,5,5,6,6],"right_children":[2,4,6,8,10,12,14,-1,-1,-1,-1,-1,-1,-1,-1],"split_conditions":[1.28E2,NaN,NaN,4E0,6E0,2.56E2,2E1,4.618011E-1,4.014842E0,-2.6149907E0,1.1951483E-1,6.2074547E0,1.2352382E1,1.7247615E0,5.926782E0],"split_indices":[3,0,0,2,1,3,7,0,0,0,0,0,0,0,0],"split_type":[0,1,1,0,0,0,0,0,0,0,0,0,0,0,0],"sum_hessian":[7.67E2,2.17E2,5.5E2,7.2E1,1.45E2,2.07E2,3.43E2,2.7E1,4.5E1,2.1E1,1.24E2,1.72E2,3.5E1,2.24E2,1.19E2],"tree_param":{"num_deleted":"0","num_feature":"8","num_nodes":"15","size_leaf_vector":"0"}},{"base_weights":[2.4199453E1,1.928768E1,5.644564E1,1.8016256E1,1.5656538E2,7.961458E1,3.1221033E1,4.6872764E0,1.5239286E0,5.335797E0,2.2289879E1,1.7154222E1,5.561121E0,1.018873E1,2.922136E-1],"categories":[2,3,4,5,6,8,10,11,13,14,15,1,2,4,6,7,8,9,10,11,12,13,0,1,3,4,5,7,10,11,14,15],"categories_nodes":[3,5,6],"categories_segments":[0,11,22],"categories_sizes":[11,11,10],"default_left":[0,0,0,1,0,1,1,0,0,0,0,0,0,0,0],"id":17,"left_children":[1,3,5,7,9,11,13,-1,-1,-1,-1,-1,-1,-1,-1],"loss_changes":[1.2055172E5,1.13770734E5,5.654153E4,7.485241E4,3.2867188E3,9.461491E4,6.8133766E4,0E0,0E0,0E0,0E0,0E0,0E0,0E0,0E0],"parents":[2147483647,0,0,1,1,2,2,3,3,4,4,5,5,6,6],"right_children":[2,4,6,8,10,12,14,-1,-1,-1,-1,-1,-1,-1,-1],"split_conditions":[2.56E2,2E2,5.4E1,NaN,8E0,NaN,NaN,4.6872764E0,1.5239286E0,5.335797E0,2.2289879E1,1.7154222E1,5.561121E0,1.018873E1,2.922136E-1],"split_indices":[3,6,6,0,2,0,0,0,0,0,0,0,0,0,0],"split_type":[0,0,0,1,0,1,1,0,0,0,0,0,0,0,0],"sum_hessian":[7.67E2,6.67E2,1E2,6.62E2,5E0,5.1E1,4.9E1,1.7E2,4.92E2,1E0,4E0,2E1,3.1E1,1.8E1,3.1E1],"tree_param":{"num_deleted":"0","num_feature":"8","num_nodes":"15","size_leaf_vector":"0"}},{"base_weights":[2.1140808E1,3.769624E0,2.9271154E1,-2.4547655E1,6.521671E0,1.1287151E2,2.5895601E1,-2.1690488E0,-8.941771E0,2.2319062E0,-1.442449E-1,9.098749E0,1.9337967E1,3.115124E0,1.2618362E1],"categories":[2,4,6,10,11,12,13,15],"categories_nodes":[4],"categories_segments":[0],"categories_sizes":[8],"default_left":[0,0,0,0,1,1,0,0,0,0,0,0,0,0,0],"id":18,"left_children":[1,3,5,7,9,11,13,-1,-1,-1,-1,-1,-1,-1,-1],"loss_changes":[1.0835716E5,1.9330988E4,1.4466638E5,6.5041016E3,1.83E4,2.0361984E4,6.701281E4,0E0,0E0,0E0,0E0,0E0,0E0,0E0,0E0],"parents":[2147483647,0,0,1,1,2,2,3,3,4,4,5,5,6,6],"right_children":[2,4,6,8,10,12,14,-1,-1,-1,-1,-1,-1,-1,-1],"split_conditions":[1E1,6E0,1.3E1,6E0,NaN,4.3E3,2E2,-2.1690488E0,-8.941771E0,2.2319062E0,-1.442449E-1,9.098749E0,1.9337967E1,3.115124E0,1.2618362E1],"split_indices":[7,1,7,2,0,4,6,0,0,0,0,0,0,0,0],"split_type":[0,0,0,0,1,0,0,0,0,0,0,0,0,0,0],"sum_hessian":[7.67E2,2.45E2,5.22E2,2.1E1,2.24E2,1.9E1,5.03E2,1.9E1,2E0,9.3E1,1.31E2,1E1,9E0,4.91E2,1.2E1],"tree_param":{"num_deleted":"0","num_feature":"8","num_nodes":"15","size_leaf_vector":"0"}},{"base_weights":[1.843827E1,2.9904275E0,2.6524063E1,3.7559223E1,-5.4234405E0,7.266609E1,2.3241837E1,6.1596364E-1,7.991106E0,-2.1833795E-1,-3.802388E0,-1.4385644E0,1.1441747E1,1.9653574E0,5.1278095E0],"categories":[2,3,4,5,6,8,9,10,11,13,14,15,0,2,3,4,5,6,7,8,10,11,12,13,14,15],"categories_nodes":[1,2],"categories_segments":[0,12],"categories_sizes":[12,14],"default_left":[0,1,1,0,0,0,0,0,0,0,0,0,0,0,0],"id":19,"left_children":[1,3,5,7,9,11,13,-1,-1,-1,-1,-1,-1,-1,-1],"loss_changes":[9.585011E4,7.7280875E4,7.464119E4,4.051721E4,1.9039988E4,4.3381047E4,6.153167E4,0E0,0E0,0E0,0E0,0E0,0E0,0E0,0E0],"parents":[2147483647,0,0,1,1,2,2,3,3,4,4,5,5,6,6],"right_children":[2,4,6,8,10,12,14,-1,-1,-1,-1,-1,-1,-1,-1],"split_conditions":[5E1,NaN,NaN,1E1,8E0,6E0,2E1,6.1596364E-1,7.991106E0,-2.1833795E-1,-3.802388E0,-1.4385644E0,1.1441747E1,1.9653574E0,5.1278095E0],"split_indices":[6,0,0,7,2,2,7,0,0,0,0,0,0,0,0],"split_type":[0,1,1,0,0,0,0,0,0,0,0,0,0,0,0],"sum_hessian":[7.67E2,2.64E2,5.03E2,5.1E1,2.13E2,3.2E1,4.71E2,2.2E1,2.9E1,1.85E2,2.8E1,5E0,2.7E1,3.15E2,1.56E2],"tree_param":{"num_deleted":"0","num_feature":"8","num_nodes":"15","size_leaf_vector":"0"}},{"base_weights":[1.6069527E1,1.2206276E1,4.1461426E1,1.1153037E1,1.2655475E2,8.832736E0,5.7887436E1,1.7590933E0,-2.8355215E0,4.041028E0,1.812613E1,6.3782253E0,-4.145506E0,1.45356245E1,5.5685334E0],"categories":[4,13,5,7,9,10,11,14,15,1,2,3,4,6,7,8,10,11,12,13,14,15],"categories_nodes":[3,5,6],"categories_segments":[0,2,9],"categories_sizes":[2,7,13],"default_left":[0,0,0,1,0,1,1,0,0,0,0,0,0,0,0],"id":20,"left_children":[1,3,5,7,9,11,13,-1,-1,-1,-1,-1,-1,-1,-1],"loss_changes":[7.483105E4,7.903992E4,5.362058E4,5.227764E4,3.0419844E3,5.8902875E4,4.959514E4,0E0,0E0,0E0,0E0,0E0,0E0,0E0,0E0],"parents":[2147483647,0,0,1,1,2,2,3,3,4,4,5,5,6,6],"right_children":[2,4,6,8,10,12,14,-1,-1,-1,-1,-1,-1,-1,-1],"split_conditions":[2.56E2,2E2,4.52E3,NaN,8E0,NaN,NaN,1.7590933E0,-2.8355215E0,4.041028E0,1.812613E1,6.3782253E0,-4.145506E0,1.45356245E1,5.5685334E0],"split_indices":[3,6,4,0,2,0,0,0,0,0,0,0,0,0,0],"split_type":[0,0,0,1,0,1,1,0,0,0,0,0,0,0,0],"sum_hessian":[7.67E2,6.67E2,1E2,6.62E2,5E0,3.4E1,6.6E1,6.18E2,4.4E1,1E0,4E0,1.7E1,1.7E1,1.3E1,5.3E1],"tree_param":{"num_deleted":"0","num_feature":"8","num_nodes":"15","size_leaf_vector":"0"}},{"base_weights":[1.4037033E1,1.1046417E0,2.080895E1,2.8504047E1,-6.7101874E0,2.3632034E1,-1.891108E1,-1.6791384E0,4.974494E0,-3.5975617E-1,-5.166204E0,2.8786292E0,1.2687109E1,-3.3582253E0,7.9587483E0],"categories":[2,3,4,6,8,9,10,11,13,14,15,4,13],"categories_nodes":[1,2],"categories_segments":[0,11],"categories_sizes":[11,2],"default_left":[0,1,1,0,0,0,0,0,0,0,0,0,0,0,0],"id":21,"left_children":[1,3,5,7,9,11,13,-1,-1,-1,-1,-1,-1,-1,-1],"loss_changes":[6.723622E4,5.6933508E4,5.696192E4,2.4348988E4,2.6847867E4,4.9699875E4,2.0438887E4,0E0,0E0,0E0,0E0,0E0,0E0,0E0,0E0],"parents":[2147483647,0,0,1,1,2,2,3,3,4,4,5,5,6,6],"right_children":[2,4,6,8,10,12,14,-1,-1,-1,-1,-1,-1,-1,-1],"split_conditions":[5E1,NaN,NaN,7E0,8E0,6E1,5.003E3,-1.6791384E0,4.974494E0,-3.5975617E-1,-5.166204E0,2.8786292E0,1.2687109E1,-3.3582253E0,7.9587483E0],"split_indices":[6,0,0,7,2,7,4,0,0,0,0,0,0,0,0],"split_type":[0,1,1,0,0,0,0,0,0,0,0,0,0,0,0],"sum_hessian":[7.67E2,2.64E2,5.03E2,5.8E1,2.06E2,4.7E2,3.3E1,1.1E1,4.7E1,1.85E2,2.1E1,4.62E2,8E0,3.1E1,2E0],"tree_param":{"num_deleted":"0","num_feature":"8","num_nodes":"15","size_leaf_vector":"0"}},{"base_weights":[1.2235572E1,-1.4457409E0,1.7626299E1,9.58292E0,-8.165837E0,2.5373621E1,3.5759132E0,-1.5689316E-1,2.0850053E0,-1.911852E0,-4.6059605E-1,5.270612E0,2.1769927E0,1.117334E0,-3.3534586E0],"categories":[6,9,10,11,13,15,2,4,8,10,13,14,4,13],"categories_nodes":[1,2,6],"categories_segments":[0,6,12],"categories_sizes":[6,6,2],"default_left":[0,1,1,0,0,1,1,0,0,0,0,0,0,0,0],"id":22,"left_children":[1,3,5,7,9,11,13,-1,-1,-1,-1,-1,-1,-1,-1],"loss_changes":[5.666718E4,1.6235031E4,5.9887188E4,5.800671E3,4.060041E3,4.578192E4,2.9262613E4,0E0,0E0,0E0,0E0,0E0,0E0,0E0,0E0],"parents":[2147483647,0,0,1,1,2,2,3,3,4,4,5,5,6,6],"right_children":[2,4,6,8,10,12,14,-1,-1,-1,-1,-1,-1,-1,-1],"split_conditions":[1.28E2,NaN,NaN,4E0,1E0,4.98E3,NaN,-1.5689316E-1,2.0850053E0,-1.911852E0,-4.6059605E-1,5.270612E0,2.1769927E0,1.117334E0,-3.3534586E0],"split_indices":[3,0,0,2,5,4,0,0,0,0,0,0,0,0,0],"split_type":[0,1,1,0,0,0,1,0,0,0,0,0,0,0,0],"sum_hessian":[7.67E2,2.17E2,5.5E2,8.2E1,1.35E2,3.54E2,1.96E2,3.1E1,5.1E1,5.5E1,8E1,1.27E2,2.27E2,1.68E2,2.8E1],"tree_param":{"num_deleted":"0","num_feature":"8","num_nodes":"15","size_leaf_vector":"0"}},{"base_weights":[1.06511545E1,7.4877944E0,3.1467724E1,6.6109324E0,1.03133095E2,5.2322685E1,9.149208E0,2.3166578E0,2.4728906E-1,3.4497457E0,1.4708864E1,1.2676381E1,2.734292E0,3.9174209E0,-4.8524923E0],"categories":[1,2,4,6,7,8,9,10,11,12,13,3,5,7,14],"categories_nodes":[5,6],"categories_segments":[0,11],"categories_sizes":[11,4],"default_left":[0,0,0,1,0,1,1,0,0,0,0,0,0,0,0],"id":23,"left_children":[1,3,5,7,9,11,13,-1,-1,-1,-1,-1,-1,-1,-1],"loss_changes":[5.0337414E4,5.534184E4,4.653193E4,3.496079E4,1.5988438E3,7.147267E4,4.9889367E4,0E0,0E0,0E0,0E0,0E0,0E0,0E0,0E0],"parents":[2147483647,0,0,1,1,2,2,3,3,4,4,5,5,6,6],"right_children":[2,4,6,8,10,12,14,-1,-1,-1,-1,-1,-1,-1,-1],"split_conditions":[2.56E2,2E2,5.4E1,5E3,8E0,NaN,NaN,2.3166578E0,2.4728906E-1,3.4497457E0,1.4708864E1,1.2676381E1,2.734292E0,3.9174209E0,-4.8524923E0],"split_indices":[3,6,6,4,2,0,0,0,0,0,0,0,0,0,0],"split_type":[0,0,0,0,0,1,1,0,0,0,0,0,0,0,0],"sum_hessian":[7.67E2,6.67E2,1E2,6.62E2,5E0,5.1E1,4.9E1,1.95E2,4.67E2,1E0,4E0,2E1,3.1E1,3.4E1,1.5E1],"tree_param":{"num_deleted":"0","num_feature":"8","num_nodes":"15","size_leaf_vector":"0"}},{"base_weights":[9.312339E0,-1.0655364E0,1.4750483E1,2.2314999E1,-6.741809E0,5.3535732E1,1.2007551E1,-2.42521E-1,5.214246E0,-4.0328246E-1,-3.8809168E0,1.6178802E1,4.7355523E0,-3.5433445E0,1.9278239E0],"categories":[2,3,4,5,6,8,9,10,11,13,14,15,0,2,3,4,5,6,7,8,10,11,12,13,14,15],"categories_nodes":[1,2],"categories_segments":[0,12],"categories_sizes":[12,14],"default_left":[0,1,1,0,0,0,0,0,0,0,0,0,0,0,0],"id":24,"left_children":[1,3,5,7,9,11,13,-1,-1,-1,-1,-1,-1,-1,-1],"loss_changes":[4.335885E4,3.531973E4,5.297536E4,2.2449533E4,1.7908445E4,3.5504438E4,5.2700758E4,0E0,0E0,0E0,0E0,0E0,0E0,0E0,0E0],"parents":[2147483647,0,0,1,1,2,2,3,3,4,4,5,5,6,6],"right_children":[2,4,6,8,10,12,14,-1,-1,-1,-1,-1,-1,-1,-1],"split_conditions":[5E1,NaN,NaN,1E1,8E0,4.36E3,4.3E3,-2.42521E-1,5.214246E0,-4.0328246E-1,-3.8809168E0,1.6178802E1,4.7355523E0,-3.5433445E0,1.9278239E0],"split_indices":[6,0,0,7,2,4,4,0,0,0,0,0,0,0,0],"split_type":[0,1,1,0,0,0,0,0,0,0,0,0,0,0,0],"sum_hessian":[7.67E2,2.64E2,5.03E2,5.1E1,2.13E2,3.2E1,4.71E2,2.2E1,2.9E1,1.85E2,2.8E1,5E0,2.7E1,3.1E1,4.4E2],"tree_param":{"num_deleted":"0","num_feature":"8","num_nodes":"15","size_leaf_vector":"0"}},{"base_weights":[8.127758E0,4.2981877E0,2.061381E1,1.9657753E1,-2.684925E-1,-6.117893E-1,4.3821E1,6.553808E0,6.7935276E-1,-1.9187135E-1,6.3183107E0,1.4483305E1,-7.1183497E-1,1.1376402E1,1.3798376E0],"categories":[2,4,5,6,8,9,10,11,13,14,15,0,1,3,4,5,6,7,8,10,11,12,13,14,15,0,1,2,3,4,5,8,10,12,13,14],"categories_nodes":[3,5,6],"categories_segments":[0,11,25],"categories_sizes":[11,14,11],"default_left":[0,1,0,1,0,1,1,0,0,0,0,0,0,0,0],"id":25,"left_children":[1,3,5,7,9,11,13,-1,-1,-1,-1,-1,-1,-1,-1],"loss_changes":[3.6634246E4,4.1319047E4,8.8692375E4,5.965922E4,2.6920691E4,5.2371645E4,1.2384003E5,0E0,0E0,0E0,0E0,0E0,0E0,0E0,0E0],"parents":[2147483647,0,0,1,1,2,2,3,3,4,4,5,5,6,6],"right_children":[2,4,6,8,10,12,14,-1,-1,-1,-1,-1,-1,-1,-1],"split_conditions":[2E1,4.98E3,4.6E3,NaN,1.2E1,NaN,NaN,6.553808E0,6.7935276E-1,-1.9187135E-1,6.3183107E0,1.4483305E1,-7.1183497E-1,1.1376402E1,1.3798376E0],"split_indices":[7,4,4,0,2,0,0,0,0,0,0,0,0,0,0],"split_type":[0,0,0,1,0,1,1,0,0,0,0,0,0,0,0],"sum_hessian":[7.67E2,5.88E2,1.79E2,1.34E2,4.54E2,9.4E1,8.5E1,4.2E1,9.2E1,4.44E2,1E1,3E0,9.1E1,3.6E1,4.9E1],"tree_param":{"num_deleted":"0","num_feature":"8","num_nodes":"15","size_leaf_vector":"0"}},{"base_weights":[7.1230817E0,4.6827335E0,2.319268E1,3.9250817E0,8.7622826E1,4.140077E1,3.7924151E0,8.984762E-1,-1.0435193E0,3.1126742E0,1.242409E1,1.1033689E1,2.065562E0,9.500336E0,-9.5117384E-1],"categories":[3,4,5,8,13,0,1,2,4,6,7,8,9,10,11,12,13,0,1,2,3,4,5,7,8,10,11,12,14,15],"categories_nodes":[3,5,6],"categories_segments":[0,5,17],"categories_sizes":[5,12,13],"default_left":[0,0,0,1,0,1,1,0,0,0,0,0,0,0,0],"id":26,"left_children":[1,3,5,7,9,11,13,-1,-1,-1,-1,-1,-1,-1,-1],"loss_changes":[3.0008836E4,4.1633016E4,3.5520395E4,2.371954E4,7.4809375E2,5.6324375E4,3.902069E4,0E0,0E0,0E0,0E0,0E0,0E0,0E0,0E0],"parents":[2147483647,0,0,1,1,2,2,3,3,4,4,5,5,6,6],"right_children":[2,4,6,8,10,12,14,-1,-1,-1,-1,-1,-1,-1,-1],"split_conditions":[2.56E2,2E2,5.4E1,NaN,8E0,NaN,NaN,8.984762E-1,-1.0435193E0,3.1126742E0,1.242409E1,1.1033689E1,2.065562E0,9.500336E0,-9.5117384E-1],"split_indices":[3,6,6,0,2,0,0,0,0,0,0,0,0,0,0],"split_type":[0,0,0,1,0,1,1,0,0,0,0,0,0,0,0],"sum_hessian":[7.67E2,6.67E2,1E2,6.62E2,5E0,5.1E1,4.9E1,5.3E2,1.32E2,1E0,4E0,1.8E1,3.3E1,6E0,4.3E1],"tree_param":{"num_deleted":"0","num_feature":"8","num_nodes":"15","size_leaf_vector":"0"}},{"base_weights":[6.24531E0,-9.103486E0,8.689845E0,-4.4178796E0,-3.5183903E1,2.1336424E1,4.4906964E0,3.517044E0,-7.0578253E-1,-5.1564975E0,-3.3051714E-1,-1.5756561E-1,3.5929937E0,-2.1238134E0,9.586881E-1],"categories":[9,2,4,5,6,8,10,11,13,14,15,0,1,2,4,5,7,8,9,10,11,12,13,14,15],"categories_nodes":[1,2,3],"categories_segments":[0,1,11],"categories_sizes":[1,10,14],"default_left":[0,1,1,1,0,0,0,0,0,0,0,0,0,0,0],"id":27,"left_children":[1,3,5,7,9,11,13,-1,-1,-1,-1,-1,-1,-1,-1],"loss_changes":[2.8894986E4,1.2798034E4,3.5112703E4,3.0429631E3,2.2396582E3,2.3480031E4,3.0092195E4,0E0,0E0,0E0,0E0,0E0,0E0,0E0,0E0],"parents":[2147483647,0,0,1,1,2,2,3,3,4,4,5,5,6,6],"right_children":[2,4,6,8,10,12,14,-1,-1,-1,-1,-1,-1,-1,-1],"split_conditions":[7E0,NaN,NaN,NaN,5.003E3,6E0,4.41E3,3.517044E0,-7.0578253E-1,-5.1564975E0,-3.3051714E-1,-1.5756561E-1,3.5929937E0,-2.1238134E0,9.586881E-1],"split_indices":[7,0,0,0,4,2,4,0,0,0,0,0,0,0,0],"split_type":[0,1,1,1,0,0,0,0,0,0,0,0,0,0,0],"sum_hessian":[7.67E2,1.05E2,6.62E2,9E1,1.5E1,1.64E2,4.98E2,2E0,8.8E1,1.3E1,2E0,3.6E1,1.28E2,6E1,4.38E2],"tree_param":{"num_deleted":"0","num_feature":"8","num_nodes":"15","size_leaf_vector":"0"}},{"base_weights":[5.432892E0,1.3889899E1,1.1772597E0,4.5755544E0,4.3742947E1,-1.060879E0,5.6288513E1,3.5351977E0,-6.879125E-1,1.282423E1,2.6373959E0,2.712507E-1,-1.5650182E0,9.78157E0,-6.2236782E-2],"categories":[0,4,5,6,7,8,11,13,14,15,0,1,2,3,4,5,8,9,13,14,4,6,9,13,0,2,3,4,8,10,12,15],"categories_nodes":[3,4,5,6],"categories_segments":[0,10,20,24],"categories_sizes":[10,10,4,8],"default_left":[1,0,0,1,1,1,1,0,0,0,0,0,0,0,0],"id":28,"left_children":[1,3,5,7,9,11,13,-1,-1,-1,-1,-1,-1,-1,-1],"loss_changes":[2.76239E4,7.126167E4,6.321319E4,4.411013E4,7.655519E4,1.7059025E4,2.1555734E4,0E0,0E0,0E0,0E0,0E0,0E0,0E0,0E0],"parents":[2147483647,0,0,1,1,2,2,3,3,4,4,5,5,6,6],"right_children":[2,4,6,8,10,12,14,-1,-1,-1,-1,-1,-1,-1,-1],"split_conditions":[4.98E3,4.6E3,1.2E1,NaN,NaN,NaN,NaN,3.5351977E0,-6.879125E-1,1.282423E1,2.6373959E0,2.712507E-1,-1.5650182E0,9.78157E0,-6.2236782E-2],"split_indices":[4,4,2,0,0,0,0,0,0,0,0,0,0,0,0],"split_type":[0,0,0,1,1,1,1,0,0,0,0,0,0,0,0],"sum_hessian":[7.67E2,2.56E2,5.11E2,1.96E2,6E1,4.92E2,1.9E1,5.9E1,1.37E2,1.7E1,4.3E1,3.83E2,1.09E2,1.4E1,5E0],"tree_param":{"num_deleted":"0","num_feature":"8","num_nodes":"15","size_leaf_vector":"0"}},{"base_weights":[4.76143E0,4.0350327E0,4.6637943E1,3.5063982E0,6.009801E1,-9.578572E0,1.0786175E1,6.3726634E-1,-2.043385E0,1.1767683E1,1.9046131E0,2.830404E0,-2.6264188E0],"categories":[4,13,0,1,2,3,4,6,8,10,11,12,13,14,15],"categories_nodes":[3,4],"categories_segments":[0,2],"categories_sizes":[2,13],"default_left":[0,0,0,1,1,0,0,0,0,0,0,0,0],"id":29,"left_children":[1,3,5,7,9,11,-1,-1,-1,-1,-1,-1,-1],"loss_changes":[2.3173584E4,2.219471E4,2.7347172E4,2.0200328E4,8.352148E3,2.438426E3,0E0,0E0,0E0,0E0,0E0,0E0,0E0],"parents":[2147483647,0,0,1,1,2,2,3,3,4,4,5,5],"right_children":[2,4,6,8,10,12,-1,-1,-1,-1,-1,-1,-1],"split_conditions":[2E2,1.6E1,2E1,NaN,NaN,8E0,1.0786175E1,6.3726634E-1,-2.043385E0,1.1767683E1,1.9046131E0,2.830404E0,-2.6264188E0],"split_indices":[6,2,7,0,0,2,0,0,0,0,0,0,0],"split_type":[0,0,0,1,1,0,0,0,0,0,0,0,0],"sum_hessian":[7.67E2,7.55E2,1.2E1,7.49E2,6E0,5E0,7E0,6.99E2,5E1,3E0,3E0,1E0,4E0],"tree_param":{"num_deleted":"0","num_feature":"8","num_nodes":"13","size_leaf_vector":"0"}},{"base_weights":[4.1727242E0,-3.15362E0,8.01659E0,1.2229194E1,-7.5228586E0,3.720941E1,5.9585824E0,3.5571867E-1,5.186038E0,-5.3096175E-1,-3.5976307E0,1.8458776E0,9.918254E0,-3.1223052E0,1.055629E0],"categories":[1,2,3,5,8,9,10,11,13,14,15,0,2,3,4,5,6,7,8,10,11,12,13,14,15],"categories_nodes":[1,2],"categories_segments":[0,11],"categories_sizes":[11,14],"default_left":[0,1,1,0,0,0,0,0,0,0,0,0,0,0,0],"id":30,"left_children":[1,3,5,7,9,11,13,-1,-1,-1,-1,-1,-1,-1,-1],"loss_changes":[2.16533E4,1.7902963E4,3.0058123E4,1.5384587E4,1.4230151E4,2.859545E4,3.0779695E4,0E0,0E0,0E0,0E0,0E0,0E0,0E0,0E0],"parents":[2147483647,0,0,1,1,2,2,3,3,4,4,5,5,6,6],"right_children":[2,4,6,8,10,12,14,-1,-1,-1,-1,-1,-1,-1,-1],"split_conditions":[5E1,NaN,NaN,1.6E1,8E0,5.03E1,4.3E3,3.5571867E-1,5.186038E0,-5.3096175E-1,-3.5976307E0,1.8458776E0,9.918254E0,-3.1223052E0,1.055629E0],"split_indices":[6,0,0,7,2,6,4,0,0,0,0,0,0,0,0],"split_type":[0,1,1,0,0,0,0,0,0,0,0,0,0,0,0],"sum_hessian":[7.67E2,2.64E2,5.03E2,5.8E1,2.06E2,3.2E1,4.71E2,4.4E1,1.4E1,1.77E2,2.9E1,2.1E1,1.1E1,3.1E1,4.4E2],"tree_param":{"num_deleted":"0","num_feature":"8","num_nodes":"15","size_leaf_vector":"0"}},{"base_weights":[3.6447346E0,1.1115078E1,-1.12145975E-1,8.430888E0,1.0577458E2,-1.974228E0,4.5793785E1,-1.2326434E0,2.0579522E0,1.7792564E1,2.4306815E0,-3.2046106E-1,7.6244144E0,9.201807E0,1.7843956E0],"categories":[0,1,2,3,4,8,10,11,12,14,15],"categories_nodes":[6],"categories_segments":[0],"categories_sizes":[11],"default_left":[1,1,0,0,0,0,1,0,0,0,0,0,0,0,0],"id":31,"left_children":[1,3,5,7,9,11,13,-1,-1,-1,-1,-1,-1,-1,-1],"loss_changes":[2.1555312E4,6.440783E4,4.385648E4,3.3419074E4,1.639232E4,1.4815034E4,1.5055422E4,0E0,0E0,0E0,0E0,0E0,0E0,0E0,0E0],"parents":[2147483647,0,0,1,1,2,2,3,3,4,4,5,5,6,6],"right_children":[2,4,6,8,10,12,14,-1,-1,-1,-1,-1,-1,-1,-1],"split_conditions":[4.98E3,4.81E3,1.2E1,4.3E3,5.4E1,2E2,NaN,-1.2326434E0,2.0579522E0,1.7792564E1,2.4306815E0,-3.2046106E-1,7.6244144E0,9.201807E0,1.7843956E0],"split_indices":[4,4,2,4,6,6,0,0,0,0,0,0,0,0,0],"split_type":[0,0,0,0,0,0,1,0,0,0,0,0,0,0,0],"sum_hessian":[7.67E2,2.56E2,5.11E2,2.5E2,6E0,4.92E2,1.9E1,7.3E1,1.77E2,4E0,2E0,4.89E2,3E0,1E1,9E0],"tree_param":{"num_deleted":"0","num_feature":"8","num_nodes":"15","size_leaf_vector":"0"}},{"base_weights":[3.2221432E0,9.752019E0,-6.184168E-2,7.3381615E0,9.491292E1,-1.7027609E0,4.0389908E1,3.0944972E0,-4.7183625E-2,1.5942137E1,2.2200212E0,9.4301254E-1,-6.5414894E-1,-5.3681173E0,6.092105E0],"categories":[2,3,4,5,7,8,11,13,14,15,4,5,6,9,10,12,13,14,15],"categories_nodes":[3,5],"categories_segments":[0,10],"categories_sizes":[10,9],"default_left":[1,1,0,1,0,1,0,0,0,0,0,0,0,0,0],"id":32,"left_children":[1,3,5,7,9,11,13,-1,-1,-1,-1,-1,-1,-1,-1],"loss_changes":[1.6469605E4,5.2134055E4,3.405434E4,3.1836426E4,1.300848E4,1.4736897E4,1.2508873E4,0E0,0E0,0E0,0E0,0E0,0E0,0E0,0E0],"parents":[2147483647,0,0,1,1,2,2,3,3,4,4,5,5,6,6],"right_children":[2,4,6,8,10,12,14,-1,-1,-1,-1,-1,-1,-1,-1],"split_conditions":[4.98E3,4.81E3,1.2E1,NaN,5.4E1,NaN,5E1,3.0944972E0,-4.7183625E-2,1.5942137E1,2.2200212E0,9.4301254E-1,-6.5414894E-1,-5.3681173E0,6.092105E0],"split_indices":[4,4,2,0,6,0,6,0,0,0,0,0,0,0,0],"split_type":[0,0,0,1,0,1,0,0,0,0,0,0,0,0,0],"sum_hessian":[7.67E2,2.56E2,5.11E2,2.5E2,6E0,4.92E2,1.9E1,7.9E1,1.71E2,4E0,2E0,1.33E2,3.59E2,1E0,1.8E1],"tree_param":{"num_deleted":"0","num_feature":"8","num_nodes":"15","size_leaf_vector":"0"}},{"base_weights":[2.832199E0,-2.2100931E1,3.6316123E0,-2.3012419E0,-3.6079193E1,4.840324E0,-1.4422025E1,2.6883528E-1,-8.172979E-1,-3.5825963E0,-7.5576577E0,2.714544E-1,1.7409964E0,-1.1852297E0,-8.992116E0],"categories":[9,12,4,13,10,15],"categories_nodes":[1,2,3],"categories_segments":[0,2,4],"categories_sizes":[2,2,2],"default_left":[0,1,1,1,0,0,0,0,0,0,0,0,0,0,0],"id":33,"left_children":[1,3,5,7,9,11,13,-1,-1,-1,-1,-1,-1,-1,-1],"loss_changes":[1.5387943E4,6.559338E3,1.6326928E4,2.045572E2,1.0290156E3,1.6424264E4,1.3019657E4,0E0,0E0,0E0,0E0,0E0,0E0,0E0,0E0],"parents":[2147483647,0,0,1,1,2,2,3,3,4,4,5,5,6,6],"right_children":[2,4,6,8,10,12,14,-1,-1,-1,-1,-1,-1,-1,-1],"split_conditions":[6E0,NaN,NaN,NaN,6E0,2E1,4.4E1,2.6883528E-1,-8.172979E-1,-3.5825963E0,-7.5576577E0,2.714544E-1,1.7409964E0,-1.1852297E0,-8.992116E0],"split_indices":[1,0,0,0,2,7,7,0,0,0,0,0,0,0,0],"split_type":[0,1,1,1,0,0,0,0,0,0,0,0,0,0,0],"sum_hessian":[7.67E2,2.3E1,7.44E2,1E1,1.3E1,6.98E2,4.6E1,5E0,5E0,1.1E1,2E0,5.29E2,1.69E2,4.3E1,3E0],"tree_param":{"num_deleted":"0","num_feature":"8","num_nodes":"15","size_leaf_vector":"0"}},{"base_weights":[2.4381618E0,1.871387E0,3.5210743E1,1.4697324E0,4.463847E1,-1.3711711E1,6.7501236E1,3.9663556E-1,-1.0346088E0,9.0956955E0,1.0595567E0,2.1070986E0,-2.9818661E0,1.2123377E1,5.6385255E0],"categories":[2,4,6,13,0,1,2,3,4,6,8,10,11,12,13,14,15,0,1,3,4,5,6,7,8,9,10,11,12,13,14],"categories_nodes":[3,4,6],"categories_segments":[0,4,17],"categories_sizes":[4,13,14],"default_left":[0,0,0,1,1,0,1,0,0,0,0,0,0,0,0],"id":34,"left_children":[1,3,5,7,9,11,13,-1,-1,-1,-1,-1,-1,-1,-1],"loss_changes":[1.4199455E4,1.2920656E4,2.1462053E4,1.1206038E4,5.8990283E3,2.0279908E3,9.265742E2,0E0,0E0,0E0,0E0,0E0,0E0,0E0,0E0],"parents":[2147483647,0,0,1,1,2,2,3,3,4,4,5,5,6,6],"right_children":[2,4,6,8,10,12,14,-1,-1,-1,-1,-1,-1,-1,-1],"split_conditions":[2E2,1.6E1,2E1,NaN,NaN,8E0,NaN,3.9663556E-1,-1.0346088E0,9.0956955E0,1.0595567E0,2.1070986E0,-2.9818661E0,1.2123377E1,5.6385255E0],"split_indices":[6,2,7,0,0,2,0,0,0,0,0,0,0,0,0],"split_type":[0,0,0,1,1,0,1,0,0,0,0,0,0,0,0],"sum_hessian":[7.67E2,7.55E2,1.2E1,7.49E2,6E0,5E0,7E0,6.42E2,1.07E2,3E0,3E0,1E0,4E0,2E0,5E0],"tree_param":{"num_deleted":"0","num_feature":"8","num_nodes":"15","size_leaf_vector":"0"}},{"base_weights":[2.1555808E0,-8.041311E0,3.782602E0,-4.0149655E0,-3.0438574E1,9.98106E0,2.6511976E-1,6.086262E-1,-1.0084152E0,-4.4903984E0,-1.488856E-1,-7.594042E-1,1.9276906E0,-2.6633747E0,2.6897222E-1],"categories":[9,2,4,5,6,8,10,13,14,15,10,11,12,15],"categories_nodes":[1,2,3],"categories_segments":[0,1,10],"categories_sizes":[1,9,4],"default_left":[0,1,1,1,0,0,0,0,0,0,0,0,0,0,0],"id":35,"left_children":[1,3,5,7,9,11,13,-1,-1,-1,-1,-1,-1,-1,-1],"loss_changes":[1.2771967E4,9.436777E3,1.4452721E4,2.9977954E3,1.8834648E3,1.849403E4,1.5915078E4,0E0,0E0,0E0,0E0,0E0,0E0,0E0,0E0],"parents":[2147483647,0,0,1,1,2,2,3,3,4,4,5,5,6,6],"right_children":[2,4,6,8,10,12,14,-1,-1,-1,-1,-1,-1,-1,-1],"split_conditions":[7E0,NaN,NaN,NaN,5.003E3,6E0,4.3E3,6.086262E-1,-1.0084152E0,-4.4903984E0,-1.488856E-1,-7.594042E-1,1.9276906E0,-2.6633747E0,2.6897222E-1],"split_indices":[7,0,0,0,4,2,4,0,0,0,0,0,0,0,0],"split_type":[0,1,1,1,0,0,0,0,0,0,0,0,0,0,0],"sum_hessian":[7.67E2,1.05E2,6.62E2,9E1,1.5E1,2.39E2,4.23E2,2.7E1,6.3E1,1.3E1,2E0,5.6E1,1.83E2,3.3E1,3.9E2],"tree_param":{"num_deleted":"0","num_feature":"8","num_nodes":"15","size_leaf_vector":"0"}},{"base_weights":[1.8671949E0,1.3520011E0,3.1684061E1,9.933875E-1,3.9581745E1,-1.2299129E1,6.0710945E1,7.901953E-1,-1.9313419E-1,9.131566E0,1.7249374E0,1.952654E0,-2.6997256E0,1.1049373E1,4.9985437E0],"categories":[0,1,2,3,4,6,8,9,10,11,12,13,14,15,0,1,3,4,5,6,7,8,9,10,11,12,13,14],"categories_nodes":[4,6],"categories_segments":[0,14],"categories_sizes":[14,14],"default_left":[0,0,0,1,1,0,1,0,0,0,0,0,0,0,0],"id":36,"left_children":[1,3,5,7,9,11,13,-1,-1,-1,-1,-1,-1,-1,-1],"loss_changes":[1.1754766E4,1.0325218E4,1.7343727E4,9.463521E3,4.715458E3,1.699981E3,1.0565625E3,0E0,0E0,0E0,0E0,0E0,0E0,0E0,0E0],"parents":[2147483647,0,0,1,1,2,2,3,3,4,4,5,5,6,6],"right_children":[2,4,6,8,10,12,14,-1,-1,-1,-1,-1,-1,-1,-1],"split_conditions":[2E2,1.6E1,2E1,5E3,NaN,8E0,NaN,7.901953E-1,-1.9313419E-1,9.131566E0,1.7249374E0,1.952654E0,-2.6997256E0,1.1049373E1,4.9985437E0],"split_indices":[6,2,7,4,0,2,0,0,0,0,0,0,0,0,0],"split_type":[0,0,0,0,1,0,1,0,0,0,0,0,0,0,0],"sum_hessian":[7.67E2,7.55E2,1.2E1,7.49E2,6E0,5E0,7E0,2.45E2,5.04E2,2E0,4E0,1E0,4E0,2E0,5E0],"tree_param":{"num_deleted":"0","num_feature":"8","num_nodes":"15","size_leaf_vector":"0"}},{"base_weights":[1.6592959E0,-9.702485E0,2.866652E0,5.05956E-2,-2.6681944E1,1.266519E1,-6.602963E-1,-2.7167227E0,1.8844887E0,2.5915256E0,-4.6352715E0,3.9075654E0,-1.1520524E0,-2.5835013E-1,4.170864E0],"categories":[3,7,14,15],"categories_nodes":[1],"categories_segments":[0],"categories_sizes":[4],"default_left":[0,1,1,0,0,0,0,0,0,0,0,0,0,0,0],"id":37,"left_children":[1,3,5,7,9,11,13,-1,-1,-1,-1,-1,-1,-1,-1],"loss_changes":[1.056302E4,1.22559E4,2.4026824E4,1.4828236E4,1.2005936E4,6.915994E4,2.231094E4,0E0,0E0,0E0,0E0,0E0,0E0,0E0,0E0],"parents":[2147483647,0,0,1,1,2,2,3,3,4,4,5,5,6,6],"right_children":[2,4,6,8,10,12,14,-1,-1,-1,-1,-1,-1,-1,-1],"split_conditions":[4.3E3,NaN,4.98E3,1E0,1E0,5.4E1,1.2E1,-2.7167227E0,1.8844887E0,2.5915256E0,-4.6352715E0,3.9075654E0,-1.1520524E0,-2.5835013E-1,4.170864E0],"split_indices":[4,0,4,5,5,6,2,0,0,0,0,0,0,0,0],"split_type":[0,1,0,0,0,0,0,0,0,0,0,0,0,0,0],"sum_hessian":[7.67E2,7.3E1,6.94E2,4.7E1,2.6E1,1.83E2,5.11E2,1.9E1,2.8E1,4E0,2.2E1,1.01E2,8.2E1,4.92E2,1.9E1],"tree_param":{"num_deleted":"0","num_feature":"8","num_nodes":"15","size_leaf_vector":"0"}},{"base_weights":[1.4485238E0,2.0541984E-1,1.2287678E1,2.9000425E0,-9.037071E0,2.4651535E1,-1.7073309E1,2.6801655E-1,9.941531E0,8.06107E0,-2.0708168E0,1.151305E0,5.52972E0,6.699301E-1,-3.4487154E0],"categories":[0,1,3,4,5,9,10,11,13,14,0,1,2,3,4,5,7,8,10,11,12,13,14,15],"categories_nodes":[2,4],"categories_segments":[0,10],"categories_sizes":[10,14],"default_left":[0,0,1,0,1,0,0,0,0,0,0,0,0,0,0],"id":38,"left_children":[1,3,5,7,9,11,13,-1,-1,-1,-1,-1,-1,-1,-1],"loss_changes":[1.0345657E4,1.7210678E4,2.9099072E4,3.284228E4,7.737545E4,1.5443074E4,5.18052E3,0E0,0E0,0E0,0E0,0E0,0E0,0E0,0E0],"parents":[2147483647,0,0,1,1,2,2,3,3,4,4,5,5,6,6],"right_children":[2,4,6,8,10,12,14,-1,-1,-1,-1,-1,-1,-1,-1],"split_conditions":[1.08E2,6.4E1,NaN,5.03E1,NaN,2E1,8E0,2.6801655E-1,9.941531E0,8.06107E0,-2.0708168E0,1.151305E0,5.52972E0,6.699301E-1,-3.4487154E0],"split_indices":[6,6,0,6,0,7,2,0,0,0,0,0,0,0,0],"split_type":[0,0,1,0,1,0,0,0,0,0,0,0,0,0,0],"sum_hessian":[7.67E2,6.89E2,7.8E1,5.34E2,1.55E2,5.5E1,2.3E1,5.29E2,5E0,1.3E1,1.42E2,3E1,2.5E1,7E0,1.6E1],"tree_param":{"num_deleted":"0","num_feature":"8","num_nodes":"15","size_leaf_vector":"0"}},{"base_weights":[1.2863935E0,-3.660581E0,3.884929E0,1.421135E0,-1.2059624E1,1.0728648E1,-1.8606207E-1,-2.5443916E0,3.3903557E-1,-1.1779757E0,-5.377928E0,5.744609E-1,4.147369E0,-1.8703665E-1,6.289218E0],"categories":[1,2,3,5,9,13,15,0,4,5,6,7,8,10,12,13,14],"categories_nodes":[1,2],"categories_segments":[0,7],"categories_sizes":[7,10],"default_left":[0,1,1,0,0,0,0,0,0,0,0,0,0,0,0],"id":39,"left_children":[1,3,5,7,9,11,13,-1,-1,-1,-1,-1,-1,-1,-1],"loss_changes":[9.886776E3,1.132775E4,1.4043801E4,4.1870312E3,8.412794E3,2.497642E4,1.935463E4,0E0,0E0,0E0,0E0,0E0,0E0,0E0,0E0],"parents":[2147483647,0,0,1,1,2,2,3,3,4,4,5,5,6,6],"right_children":[2,4,6,8,10,12,14,-1,-1,-1,-1,-1,-1,-1,-1],"split_conditions":[5E1,NaN,NaN,4.02E3,2E1,2E1,5.003E3,-2.5443916E0,3.3903557E-1,-1.1779757E0,-5.377928E0,5.744609E-1,4.147369E0,-1.8703665E-1,6.289218E0],"split_indices":[6,0,0,4,7,7,4,0,0,0,0,0,0,0,0],"split_type":[0,1,1,0,0,0,0,0,0,0,0,0,0,0,0],"sum_hessian":[7.67E2,2.64E2,5.03E2,1.65E2,9.9E1,1.87E2,3.16E2,8E0,1.57E2,9.1E1,8E0,1.45E2,4.2E1,3.09E2,7E0],"tree_param":{"num_deleted":"0","num_feature":"8","num_nodes":"15","size_leaf_vector":"0"}},{"base_weights":[1.1218497E0,-1.7346392E1,1.7152939E0,-7.601034E-1,-2.9139446E1,2.5862594E0,-1.1274496E1,3.995709E-1,-5.807289E-1,-2.7781465E0,-6.5653434E0,2.8109586E-1,4.5306816E0,3.339907E-1,-3.9119453E0],"categories":[9,12,4,13,10,15],"categories_nodes":[1,2,3],"categories_segments":[0,2,4],"categories_sizes":[2,2,2],"default_left":[0,1,1,1,0,0,0,0,0,0,0,0,0,0,0],"id":40,"left_children":[1,3,5,7,9,11,13,-1,-1,-1,-1,-1,-1,-1,-1],"loss_changes":[8.446935E3,4.6723228E3,8.457833E3,1.7005992E2,1.2443555E3,9.486881E3,1.2320882E4,0E0,0E0,0E0,0E0,0E0,0E0,0E0,0E0],"parents":[2147483647,0,0,1,1,2,2,3,3,4,4,5,5,6,6],"right_children":[2,4,6,8,10,12,14,-1,-1,-1,-1,-1,-1,-1,-1],"split_conditions":[6E0,NaN,NaN,NaN,6E0,6E1,8E0,3.995709E-1,-5.807289E-1,-2.7781465E0,-6.5653434E0,2.8109586E-1,4.5306816E0,3.339907E-1,-3.9119453E0],"split_indices":[1,0,0,0,2,7,2,0,0,0,0,0,0,0,0],"split_type":[0,1,1,1,0,0,0,0,0,0,0,0,0,0,0],"sum_hessian":[7.67E2,2.3E1,7.44E2,1E1,1.3E1,6.98E2,4.6E1,5E0,5E0,1.1E1,2E0,6.9E2,8E0,2.7E1,1.9E1],"tree_param":{"num_deleted":"0","num_feature":"8","num_nodes":"15","size_leaf_vector":"0"}},{"base_weights":[9.6521366E-1,-6.8204737E0,2.2358477E0,-5.009867E-1,-2.2501102E1,1.8430672E1,9.945588E-1,-7.895832E-1,7.1823436E-1,-2.1987891E0,-6.262428E0,1.1451956E1,-5.0214577E-2,-2.1176329E0,3.9412177E-1],"categories":[6,9,10,12,0,2,3,4,5,6,7,8,10,11,12,13,14,15],"categories_nodes":[1,2],"categories_segments":[0,4],"categories_sizes":[4,14],"default_left":[0,1,1,0,0,0,0,0,0,0,0,0,0,0,0],"id":41,"left_children":[1,3,5,7,9,11,13,-1,-1,-1,-1,-1,-1,-1,-1],"loss_changes":[7.612888E3,1.0690828E4,1.3269392E4,2.652838E3,3.631706E3,6.164221E4,2.170362E4,0E0,0E0,0E0,0E0,0E0,0E0,0E0,0E0],"parents":[2147483647,0,0,1,1,2,2,3,3,4,4,5,5,6,6],"right_children":[2,4,6,8,10,12,14,-1,-1,-1,-1,-1,-1,-1,-1],"split_conditions":[1E0,NaN,NaN,7E0,1.28E2,4.36E3,4.35E3,-7.895832E-1,7.1823436E-1,-2.1987891E0,-6.262428E0,1.1451956E1,-5.0214577E-2,-2.1176329E0,3.9412177E-1],"split_indices":[5,0,0,7,3,4,4,0,0,0,0,0,0,0,0],"split_type":[0,1,1,0,0,0,0,0,0,0,0,0,0,0,0],"sum_hessian":[7.67E2,1.07E2,6.6E2,7.7E1,3E1,4.6E1,6.14E2,4E1,3.7E1,2.6E1,4E0,9E0,3.7E1,6.4E1,5.5E2],"tree_param":{"num_deleted":"0","num_feature":"8","num_nodes":"15","size_leaf_vector":"0"}},{"base_weights":[8.412258E-1,5.2439327E0,-1.3703697E0,3.2193754E0,7.7089645E1,-3.3581402E0,1.4246974E1,1.4087536E0,-9.946858E-1,1.1873386E1,-5.44373E-1,-5.9304255E-1,2.9966278E0,1.288587E1,3.3117482E-1],"categories":[0,1,2,3,4,5,6,8,9,10,12,13,14,15],"categories_nodes":[6],"categories_segments":[0],"categories_sizes":[14],"default_left":[1,1,0,0,0,0,1,0,0,0,0,0,0,0,0],"id":42,"left_children":[1,3,5,7,9,11,13,-1,-1,-1,-1,-1,-1,-1,-1],"loss_changes":[7.4852075E3,3.713395E4,1.5942216E4,2.086697E4,8.4865E3,1.4569304E4,5.734115E4,0E0,0E0,0E0,0E0,0E0,0E0,0E0,0E0],"parents":[2147483647,0,0,1,1,2,2,3,3,4,4,5,5,6,6],"right_children":[2,4,6,8,10,12,14,-1,-1,-1,-1,-1,-1,-1,-1],"split_conditions":[4.98E3,4.81E3,2E1,5.03E1,1.2E1,5.05E3,NaN,1.4087536E0,-9.946858E-1,1.1873386E1,-5.44373E-1,-5.9304255E-1,2.9966278E0,1.288587E1,3.3117482E-1],"split_indices":[4,4,7,6,2,4,0,0,0,0,0,0,0,0,0],"split_type":[0,0,0,0,0,0,1,0,0,0,0,0,0,0,0],"sum_hessian":[7.67E2,2.56E2,5.11E2,2.5E2,6E0,4.54E2,5.7E1,1.47E2,1.03E2,5E0,1E0,4.35E2,1.9E1,6E0,5.1E1],"tree_param":{"num_deleted":"0","num_feature":"8","num_nodes":"15","size_leaf_vector":"0"}},{"base_weights":[7.6749873E-1,3.4678274E-1,2.5174713E1,1.6231145E0,-7.3262362E0,-1.1585246E1,4.9597843E1,-2.6046844E0,2.9545352E-1,-1.1511793E-1,-2.430823E0,1.7250073E0,-2.4973013E0,9.284436E0,3.9547412E0],"categories":[2,4,6,13,0,1,3,4,5,6,7,8,9,10,11,12,13,14],"categories_nodes":[1,6],"categories_segments":[0,4],"categories_sizes":[4,14],"default_left":[0,1,0,0,0,0,1,0,0,0,0,0,0,0,0],"id":43,"left_children":[1,3,5,7,9,11,13,-1,-1,-1,-1,-1,-1,-1,-1],"loss_changes":[7.8774814E3,7.4156387E3,1.2245915E4,9.176894E3,7.8940522E3,1.3919629E3,1.1749961E3,0E0,0E0,0E0,0E0,0E0,0E0,0E0,0E0],"parents":[2147483647,0,0,1,1,2,2,3,3,4,4,5,5,6,6],"right_children":[2,4,6,8,10,12,14,-1,-1,-1,-1,-1,-1,-1,-1],"split_conditions":[2E2,NaN,2E1,6E0,8E0,8E0,NaN,-2.6046844E0,2.9545352E-1,-1.1511793E-1,-2.430823E0,1.7250073E0,-2.4973013E0,9.284436E0,3.9547412E0],"split_indices":[6,0,7,1,2,2,0,0,0,0,0,0,0,0,0],"split_type":[0,1,0,0,0,0,1,0,0,0,0,0,0,0,0],"sum_hessian":[7.67E2,7.55E2,1.2E1,6.48E2,1.07E2,5E0,7E0,1.8E1,6.3E2,6.9E1,3.8E1,1E0,4E0,2E0,5E0],"tree_param":{"num_deleted":"0","num_feature":"8","num_nodes":"15","size_leaf_vector":"0"}},{"base_weights":[6.7763716E-1,-3.3921924E-1,9.550464E0,2.0404696E0,-8.4981575E0,1.6731016E1,-2.498289E1,-7.427996E-2,2.4497302E0,2.3736515E0,-2.9695437E0,5.0812283E0,1.3663192E0,-3.8636827E0,2.3795102E0],"categories":[3,4,9,10,5,7,8,12,13,14,15,0,1,3,4,5,6,9,10,11,13,14,15],"categories_nodes":[2,4,5],"categories_segments":[0,4,11],"categories_sizes":[4,7,12],"default_left":[0,0,1,0,1,1,0,0,0,0,0,0,0,0,0],"id":44,"left_children":[1,3,5,7,9,11,13,-1,-1,-1,-1,-1,-1,-1,-1],"loss_changes":[6.932435E3,1.3414197E4,2.0007506E4,2.3491152E4,6.0292324E4,8.767799E3,3.4151523E3,0E0,0E0,0E0,0E0,0E0,0E0,0E0,0E0],"parents":[2147483647,0,0,1,1,2,2,3,3,4,4,5,5,6,6],"right_children":[2,4,6,8,10,12,14,-1,-1,-1,-1,-1,-1,-1,-1],"split_conditions":[1.08E2,6.4E1,NaN,2.5E1,NaN,NaN,2E2,-7.427996E-2,2.4497302E0,2.3736515E0,-2.9695437E0,5.0812283E0,1.3663192E0,-3.8636827E0,2.3795102E0],"split_indices":[6,6,0,7,0,0,6,0,0,0,0,0,0,0,0],"split_type":[0,0,1,0,1,1,0,0,0,0,0,0,0,0,0],"sum_hessian":[7.67E2,6.89E2,7.8E1,5.34E2,1.55E2,6.5E1,1.3E1,4.63E2,7.1E1,5.4E1,1.01E2,1.3E1,5.2E1,1.2E1,1E0],"tree_param":{"num_deleted":"0","num_feature":"8","num_nodes":"15","size_leaf_vector":"0"}},{"base_weights":[5.983224E-1,-3.3931217E0,2.6958113E0,-2.4521315E0,-4.360384E1,6.1507354E0,-3.2948463E0,4.7871807E-1,-1.1577187E0,1.0130541E0,-7.207421E0,1.6781539E0,-1.347743E-1,-6.876149E-1,5.394301E0],"categories":[0,4,6,7,8,10,13,1,2,3,9,11,13,15,5,8],"categories_nodes":[2,3,4],"categories_segments":[0,7,14],"categories_sizes":[7,7,2],"default_left":[0,0,1,1,1,0,0,0,0,0,0,0,0,0,0],"id":45,"left_children":[1,3,5,7,9,11,13,-1,-1,-1,-1,-1,-1,-1,-1],"loss_changes":[6.43885E3,9.920119E3,1.0451689E4,1.03259E4,4.0825928E3,1.5557021E4,1.6746008E4,0E0,0E0,0E0,0E0,0E0,0E0,0E0,0E0],"parents":[2147483647,0,0,1,1,2,2,3,3,4,4,5,5,6,6],"right_children":[2,4,6,8,10,12,14,-1,-1,-1,-1,-1,-1,-1,-1],"split_conditions":[5E1,1.2E1,NaN,NaN,NaN,6.4E1,5.003E3,4.7871807E-1,-1.1577187E0,1.0130541E0,-7.207421E0,1.6781539E0,-1.347743E-1,-6.876149E-1,5.394301E0],"split_indices":[6,2,0,0,0,6,4,0,0,0,0,0,0,0,0],"split_type":[0,0,1,1,1,0,0,0,0,0,0,0,0,0,0],"sum_hessian":[7.67E2,2.64E2,5.03E2,2.59E2,5E0,3.19E2,1.84E2,1.33E2,1.26E2,1E0,4E0,1.64E2,1.55E2,1.77E2,7E0],"tree_param":{"num_deleted":"0","num_feature":"8","num_nodes":"15","size_leaf_vector":"0"}},{"base_weights":[5.197297E-1,4.5239773E0,-1.49123E0,-1.059398E0,2.6034693E1,-2.459942E0,2.2462084E1,1.2775168E0,-1.3958907E0,8.445101E0,7.6020026E-1,5.6797534E-1,-6.49351E-1,4.799972E0,-1.2568846E0],"categories":[4,5,6,7,8,11,15,0,1,2,3,4,5,8,9,13,14,4,5,6,9,10,12,13,14,15,0,2,3,4,8,10,11,12,15],"categories_nodes":[3,4,5,6],"categories_segments":[0,7,17,26],"categories_sizes":[7,10,9,9],"default_left":[1,1,0,1,1,1,1,0,0,0,0,0,0,0,0],"id":46,"left_children":[1,3,5,7,9,11,13,-1,-1,-1,-1,-1,-1,-1,-1],"loss_changes":[6.1909746E3,3.08939E4,1.1935634E4,2.1704627E4,4.126921E4,8.556604E3,9.649604E3,0E0,0E0,0E0,0E0,0E0,0E0,0E0,0E0],"parents":[2147483647,0,0,1,1,2,2,3,3,4,4,5,5,6,6],"right_children":[2,4,6,8,10,12,14,-1,-1,-1,-1,-1,-1,-1,-1],"split_conditions":[4.98E3,4.6E3,1.2E1,NaN,NaN,NaN,NaN,1.2775168E0,-1.3958907E0,8.445101E0,7.6020026E-1,5.6797534E-1,-6.49351E-1,4.799972E0,-1.2568846E0],"split_indices":[4,4,2,0,0,0,0,0,0,0,0,0,0,0,0],"split_type":[0,0,0,1,1,1,1,0,0,0,0,0,0,0,0],"sum_hessian":[7.67E2,2.56E2,5.11E2,2.04E2,5.2E1,4.92E2,1.9E1,9.6E1,1.08E2,1.7E1,3.5E1,1.33E2,3.59E2,1.3E1,6E0],"tree_param":{"num_deleted":"0","num_feature":"8","num_nodes":"15","size_leaf_vector":"0"}},{"base_weights":[4.6850535E-1,-4.6190363E-1,8.588932E0,1.5608505E0,-7.395952E0,1.6525053E1,-1.5648879E1,2.6284137E0,-8.048753E-2,8.110404E0,-1.5720675E0,5.661137E0,1.5774777E0,7.627758E-1,-3.5991762E0],"categories":[3,4,9,10,11,0,1,2,4,6,8,9,10,11,12,13,14,15,0,1,2,3,4,5,6,7,8,10,11,12,13,14,15,0,1,3,4,5,6,9,10,11,12,13,14,15],"categories_nodes":[2,3,4,5],"categories_segments":[0,5,18,33],"categories_sizes":[5,13,15,13],"default_left":[0,0,1,1,1,1,0,0,0,0,0,0,0,0,0],"id":47,"left_children":[1,3,5,7,9,11,13,-1,-1,-1,-1,-1,-1,-1,-1],"loss_changes":[5.8064517E3,9.689398E3,1.5454582E4,2.1772865E4,5.188582E4,6.590201E3,5.3423423E3,0E0,0E0,0E0,0E0,0E0,0E0,0E0,0E0],"parents":[2147483647,0,0,1,1,2,2,3,3,4,4,5,5,6,6],"right_children":[2,4,6,8,10,12,14,-1,-1,-1,-1,-1,-1,-1,-1],"split_conditions":[1.08E2,6.4E1,NaN,NaN,NaN,NaN,8E0,2.6284137E0,-8.048753E-2,8.110404E0,-1.5720675E0,5.661137E0,1.5774777E0,7.627758E-1,-3.5991762E0],"split_indices":[6,6,0,0,0,0,2,0,0,0,0,0,0,0,0],"split_type":[0,0,1,1,1,1,0,0,0,0,0,0,0,0,0],"sum_hessian":[7.67E2,6.89E2,7.8E1,5.34E2,1.55E2,5.9E1,1.9E1,5.5E1,4.79E2,9E0,1.46E2,7E0,5.2E1,7E0,1.2E1],"tree_param":{"num_deleted":"0","num_feature":"8","num_nodes":"15","size_leaf_vector":"0"}},{"base_weights":[4.251642E-1,4.08127E0,-1.41086E0,2.336307E0,6.606762E1,-3.0272768E0,1.1293976E1,2.1360195E0,-2.3343286E-1,1.0111468E1,-2.7363953E-1,-5.083801E-1,3.0088158E0,1.1080425E1,1.4603063E-1],"categories":[0,1,2,3,4,5,6,8,9,10,12,13,14,15],"categories_nodes":[6],"categories_segments":[0],"categories_sizes":[14],"default_left":[1,1,0,0,0,0,1,0,0,0,0,0,0,0,0],"id":48,"left_children":[1,3,5,7,9,11,13,-1,-1,-1,-1,-1,-1,-1,-1],"loss_changes":[5.1611113E3,2.7643764E4,1.054878E4,1.4647281E4,5.753215E3,1.0609559E4,4.352139E4,0E0,0E0,0E0,0E0,0E0,0E0,0E0,0E0],"parents":[2147483647,0,0,1,1,2,2,3,3,4,4,5,5,6,6],"right_children":[2,4,6,8,10,12,14,-1,-1,-1,-1,-1,-1,-1,-1],"split_conditions":[4.98E3,4.81E3,2E1,1.6E1,1.2E1,5.065E3,NaN,2.1360195E0,-2.3343286E-1,1.0111468E1,-2.7363953E-1,-5.083801E-1,3.0088158E0,1.1080425E1,1.4603063E-1],"split_indices":[4,4,7,7,2,4,0,0,0,0,0,0,0,0,0],"split_type":[0,0,0,0,0,0,1,0,0,0,0,0,0,0,0],"sum_hessian":[7.67E2,2.56E2,5.11E2,2.5E2,6E0,4.54E2,5.7E1,5.6E1,1.94E2,5E0,1E0,4.4E2,1.4E1,6E0,5.1E1],"tree_param":{"num_deleted":"0","num_feature":"8","num_nodes":"15","size_leaf_vector":"0"}},{"base_weights":[4.0305176E-1,-8.183046E0,1.3166751E0,-3.647853E0,-3.1310892E1,8.314219E0,-1.2006391E0,2.106897E0,-1.000977E0,1.0912305E0,-4.6388593E0,2.9069068E0,-4.821096E-1,-3.4167078E-1,1.3025115E0],"categories":[3,7,15,0,2,3,4,6,7,8,9,10,11,13,14,15,0,1,2,4,5,7,8,11,13],"categories_nodes":[1,3,5],"categories_segments":[0,3,16],"categories_sizes":[3,13,9],"default_left":[0,1,1,1,0,1,0,0,0,0,0,0,0,0,0],"id":49,"left_children":[1,3,5,7,9,11,13,-1,-1,-1,-1,-1,-1,-1,-1],"loss_changes":[6.035319E3,7.647588E3,1.225242E4,5.1931953E3,2.382917E3,3.1156637E4,8.227339E3,0E0,0E0,0E0,0E0,0E0,0E0,0E0,0E0],"parents":[2147483647,0,0,1,1,2,2,3,3,4,4,5,5,6,6],"right_children":[2,4,6,8,10,12,14,-1,-1,-1,-1,-1,-1,-1,-1],"split_conditions":[4.3E3,NaN,4.98E3,NaN,1E0,NaN,2E1,2.106897E0,-1.000977E0,1.0912305E0,-4.6388593E0,2.9069068E0,-4.821096E-1,-3.4167078E-1,1.3025115E0],"split_indices":[4,0,4,0,5,0,7,0,0,0,0,0,0,0,0],"split_type":[0,1,0,1,0,1,0,0,0,0,0,0,0,0,0],"sum_hessian":[7.67E2,7.3E1,6.94E2,6.2E1,1.1E1,1.83E2,5.11E2,1E1,5.2E1,1E0,1E1,8.4E1,9.9E1,4.54E2,5.7E1],"tree_param":{"num_deleted":"0","num_feature":"8","num_nodes":"15","size_leaf_vector":"0"}},{"base_weights":[3.5188437E-1,-7.152248E0,1.1503792E0,1.3423196E1,-1.0957852E1,7.2465467E0,-1.0426779E0,-3.7482274E0,4.9601655E0,-3.7897122E-1,-2.804551E0,4.958037E0,2.4981263E-1,-2.973509E-1,1.136104E0],"categories":[2,3,6,7,8,9,11,14,15],"categories_nodes":[1],"categories_segments":[0],"categories_sizes":[9],"default_left":[0,1,1,0,0,0,0,0,0,0,0,0,0,0,0],"id":50,"left_children":[1,3,5,7,9,11,13,-1,-1,-1,-1,-1,-1,-1,-1],"loss_changes":[4.6100923E3,5.9414375E3,9.29918E3,1.364089E4,5.3159307E3,3.0194387E4,6.2535713E3,0E0,0E0,0E0,0E0,0E0,0E0,0E0,0E0],"parents":[2147483647,0,0,1,1,2,2,3,3,4,4,5,5,6,6],"right_children":[2,4,6,8,10,12,14,-1,-1,-1,-1,-1,-1,-1,-1],"split_conditions":[4.3E3,NaN,4.98E3,8E0,8E0,1.6E1,2E1,-3.7482274E0,4.9601655E0,-3.7897122E-1,-2.804551E0,4.958037E0,2.4981263E-1,-2.973509E-1,1.136104E0],"split_indices":[4,0,4,2,2,7,7,0,0,0,0,0,0,0,0],"split_type":[0,1,0,0,0,0,0,0,0,0,0,0,0,0,0],"sum_hessian":[7.67E2,7.3E1,6.94E2,1.1E1,6.2E1,1.83E2,5.11E2,4E0,7E0,3.6E1,2.6E1,2.6E1,1.57E2,4.54E2,5.7E1],"tree_param":{"num_deleted":"0","num_feature":"8","num_nodes":"15","size_leaf_vector":"0"}},{"base_weights":[3.1144458E-1,4.0950978E-4,1.8375374E1,5.313027E-1,-1.4353385E1,-1.2058232E1,3.8903656E1,-3.545286E-1,3.0980837E-1,3.840324E0,-2.7392366E0,1.5470845E0,-2.499918E0,7.1467643E0,2.3745484E0],"categories":[3,4,13,14,0,1,3,5,6,7,8,9,10,11,12,13,14],"categories_nodes":[4,6],"categories_segments":[0,4],"categories_sizes":[4,13],"default_left":[0,0,0,0,1,0,1,0,0,0,0,0,0,0,0],"id":51,"left_children":[1,3,5,7,9,11,13,-1,-1,-1,-1,-1,-1,-1,-1],"loss_changes":[4.315012E3,5.768597E3,8.590855E3,4.4114043E3,8.583881E3,1.2598364E3,1.6492852E3,0E0,0E0,0E0,0E0,0E0,0E0,0E0,0E0],"parents":[2147483647,0,0,1,1,2,2,3,3,4,4,5,5,6,6],"right_children":[2,4,6,8,10,12,14,-1,-1,-1,-1,-1,-1,-1,-1],"split_conditions":[2E2,4.4E1,2E1,5E1,NaN,8E0,NaN,-3.545286E-1,3.0980837E-1,3.840324E0,-2.7392366E0,1.5470845E0,-2.499918E0,7.1467643E0,2.3745484E0],"split_indices":[6,7,7,6,0,2,0,0,0,0,0,0,0,0,0],"split_type":[0,0,0,0,1,0,1,0,0,0,0,0,0,0,0],"sum_hessian":[7.67E2,7.55E2,1.2E1,7.29E2,2.6E1,5E0,7E0,2.64E2,4.65E2,3E0,2.3E1,1E0,4E0,3E0,4E0],"tree_param":{"num_deleted":"0","num_feature":"8","num_nodes":"15","size_leaf_vector":"0"}},{"base_weights":[2.8348458E-1,4.0440306E-1,-6.0099645E0,1.9306278E-1,2.332234E1,-1.20580625E-2,2.1639376E0,7.068422E0,3.6126096E-3],"categories":[0,1,2,3,4,6,8,9,10,11,12,13,14,15],"categories_nodes":[4],"categories_segments":[0],"categories_sizes":[14],"default_left":[1,0,0,0,1,0,0,0,0],"id":52,"left_children":[1,3,-1,5,7,-1,-1,-1,-1],"loss_changes":[4.3382354E3,3.7104492E3,0E0,3.5800989E3,5.061582E3,0E0,0E0,0E0,0E0],"parents":[2147483647,0,0,1,1,3,3,4,4],"right_children":[2,4,-1,6,8,-1,-1,-1,-1],"split_conditions":[5.6E3,1.6E1,-6.0099645E0,2E2,NaN,-1.20580625E-2,2.1639376E0,7.068422E0,3.6126096E-3],"split_indices":[4,2,0,6,0,0,0,0,0],"split_type":[0,0,0,0,1,0,0,0,0],"sum_hessian":[7.67E2,7.66E2,1E0,7.6E2,6E0,7.48E2,1.2E1,2E0,4E0],"tree_param":{"num_deleted":"0","num_feature":"8","num_nodes":"9","size_leaf_vector":"0"}},{"base_weights":[2.5081396E-1,3.638542E-1,-5.619318E0,-4.9631486E0,1.2349943E0,-5.851005E-2,-2.6962187E0,1.8381459E0,3.480943E-2],"categories":[9,10,0,1,2,4,5,6,7,8,10,11,12,13,14,15],"categories_nodes":[3,4],"categories_segments":[0,2],"categories_sizes":[2,14],"default_left":[1,0,0,1,1,0,0,0,0],"id":53,"left_children":[1,3,-1,5,7,-1,-1,-1,-1],"loss_changes":[3.790122E3,3.5654434E3,0E0,7.680558E3,8.234135E3,0E0,0E0,0E0,0E0],"parents":[2147483647,0,0,1,1,3,3,4,4],"right_children":[2,4,-1,6,8,-1,-1,-1,-1],"split_conditions":[5.6E3,1E0,-5.619318E0,NaN,NaN,-5.851005E-2,-2.6962187E0,1.8381459E0,3.480943E-2],"split_indices":[4,5,0,0,0,0,0,0,0],"split_type":[0,0,0,1,1,0,0,0,0],"sum_hessian":[7.67E2,7.66E2,1E0,1.07E2,6.59E2,8.4E1,2.3E1,4.5E1,6.14E2],"tree_param":{"num_deleted":"0","num_feature":"8","num_nodes":"9","size_leaf_vector":"0"}},{"base_weights":[2.0974214E-1,3.1540245E-1,-5.254062E0,1.2460017E-1,2.1013279E1,1.8460654E-1,-3.9877295E-1,6.4528103E0,-4.7269408E-2],"categories":[2,4,5,6,7,10,13,8,9],"categories_nodes":[3,4],"categories_segments":[0,7],"categories_sizes":[7,2],"default_left":[1,0,0,1,1,0,0,0,0],"id":54,"left_children":[1,3,-1,5,7,-1,-1,-1,-1],"loss_changes":[3.3093987E3,3.02642E3,0E0,3.1512332E3,4.301252E3,0E0,0E0,0E0,0E0],"parents":[2147483647,0,0,1,1,3,3,4,4],"right_children":[2,4,-1,6,8,-1,-1,-1,-1],"split_conditions":[5.6E3,1.6E1,-5.254062E0,NaN,NaN,1.8460654E-1,-3.9877295E-1,6.4528103E0,-4.7269408E-2],"split_indices":[4,2,0,0,0,0,0,0,0],"split_type":[0,0,0,1,1,0,0,0,0],"sum_hessian":[7.67E2,7.66E2,1E0,7.6E2,6E0,5.41E2,2.19E2,2E0,4E0],"tree_param":{"num_deleted":"0","num_feature":"8","num_nodes":"9","size_leaf_vector":"0"}},{"base_weights":[1.836979E-1,-4.919005E-1,6.0821686E0,1.3861575E0,-6.929523E0,9.665468E0,-3.2155403E1,6.061939E-1,-1.151596E0,6.036467E0,-1.5737151E0,4.936022E0,7.9147136E-1,-2.2801723E-1,-7.0873365E0],"categories":[3,9,10,2,6,9,10,13,0,1,2,3,4,5,7,8,10,11,12,13,14,15,0,1,3,4,5,6,9,10,11,12,13,14,15],"categories_nodes":[2,3,4,5],"categories_segments":[0,3,8,22],"categories_sizes":[3,5,14,13],"default_left":[0,0,1,1,1,1,0,0,0,0,0,0,0,0,0],"id":55,"left_children":[1,3,5,7,9,11,13,-1,-1,-1,-1,-1,-1,-1,-1],"loss_changes":[3.06347E3,8.351863E3,1.1135111E4,1.800137E4,4.365092E4,7.1600522E3,4.6633545E3,0E0,0E0,0E0,0E0,0E0,0E0,0E0,0E0],"parents":[2147483647,0,0,1,1,2,2,3,3,4,4,5,5,6,6],"right_children":[2,4,6,8,10,12,14,-1,-1,-1,-1,-1,-1,-1,-1],"split_conditions":[1.08E2,6.4E1,NaN,NaN,NaN,NaN,8E0,6.061939E-1,-1.151596E0,6.036467E0,-1.5737151E0,4.936022E0,7.9147136E-1,-2.2801723E-1,-7.0873365E0],"split_indices":[6,6,0,0,0,0,2,0,0,0,0,0,0,0,0],"split_type":[0,0,1,1,1,1,0,0,0,0,0,0,0,0,0],"sum_hessian":[7.67E2,6.89E2,7.8E1,5.34E2,1.55E2,7.2E1,6E0,4.05E2,1.29E2,1.3E1,1.42E2,7E0,6.5E1,3E0,3E0],"tree_param":{"num_deleted":"0","num_feature":"8","num_nodes":"15","size_leaf_vector":"0"}},{"base_weights":[1.6284506E-1,2.6946425E-1,-5.3049145E0,-2.502175E0,1.7291361E0,-2.0885569E-1,-5.3162413E0,5.2185005E-1,-5.726333E-1],"categories":[4,6,7,10,13],"categories_nodes":[4],"categories_segments":[0],"categories_sizes":[5],"default_left":[1,0,0,0,1,0,0,0,0],"id":56,"left_children":[1,3,-1,5,7,-1,-1,-1,-1],"loss_changes":[3.3657551E3,3.107366E3,0E0,9.045951E3,7.068128E3,0E0,0E0,0E0,0E0],"parents":[2147483647,0,0,1,1,3,3,4,4],"right_children":[2,4,-1,6,8,-1,-1,-1,-1],"split_conditions":[5.6E3,5E1,-5.3049145E0,1.2E1,NaN,-2.0885569E-1,-5.3162413E0,5.2185005E-1,-5.726333E-1],"split_indices":[4,6,0,2,0,0,0,0,0],"split_type":[0,0,0,0,1,0,0,0,0],"sum_hessian":[7.67E2,7.66E2,1E0,2.64E2,5.02E2,2.59E2,5E0,3.66E2,1.36E2],"tree_param":{"num_deleted":"0","num_feature":"8","num_nodes":"9","size_leaf_vector":"0"}},{"base_weights":[1.2750806E-1,2.2716472E-1,-4.960094E0,-5.4614453E0,8.334039E-1,-1.9594325E-1,-3.3495567E0,2.2813816E0,1.6958036E-2],"categories":[3,7,15],"categories_nodes":[3],"categories_segments":[0],"categories_sizes":[3],"default_left":[1,0,0,1,0,0,0,0,0],"id":57,"left_children":[1,3,-1,5,7,-1,-1,-1,-1],"loss_changes":[2.9386365E3,2.6496726E3,0E0,5.9024277E3,8.1524995E3,0E0,0E0,0E0,0E0],"parents":[2147483647,0,0,1,1,3,3,4,4],"right_children":[2,4,-1,6,8,-1,-1,-1,-1],"split_conditions":[5.6E3,4.3E3,-4.960094E0,NaN,4.4E3,-1.9594325E-1,-3.3495567E0,2.2813816E0,1.6958036E-2],"split_indices":[4,4,0,0,4,0,0,0,0],"split_type":[0,0,0,1,0,0,0,0,0],"sum_hessian":[7.67E2,7.66E2,1E0,7.3E1,6.93E2,6.2E1,1.1E1,2.7E1,6.66E2],"tree_param":{"num_deleted":"0","num_feature":"8","num_nodes":"9","size_leaf_vector":"0"}},{"base_weights":[1.028487E-1,2.7670288E0,-1.1730815E0,1.2455701E0,5.518809E1,-1.8097746E0,1.4834737E1,1.5161456E0,-4.0590072E-1,9.35098E0,1.1554202E0,4.7163865E-1,-5.134536E-1,6.891179E0,6.473881E-1],"categories":[0,1,2,4,5,7,8,11,13,14,15,4,5,6,9,10,12,13,14,15,0,1,2,3,4,7,8,9,10,11,12,14,15],"categories_nodes":[3,5,6],"categories_segments":[0,11,20],"categories_sizes":[11,9,13],"default_left":[0,0,0,1,0,1,1,0,0,0,0,0,0,0,0],"id":58,"left_children":[1,3,5,7,9,11,13,-1,-1,-1,-1,-1,-1,-1,-1],"loss_changes":[2.6139143E3,1.9790625E4,5.326723E3,1.1093067E4,4.7869766E3,5.8440166E3,7.2600503E3,0E0,0E0,0E0,0E0,0E0,0E0,0E0,0E0],"parents":[2147483647,0,0,1,1,2,2,3,3,4,4,5,5,6,6],"right_children":[2,4,6,8,10,12,14,-1,-1,-1,-1,-1,-1,-1,-1],"split_conditions":[4.98E3,4.81E3,1.2E1,NaN,5.4E1,NaN,NaN,1.5161456E0,-4.0590072E-1,9.35098E0,1.1554202E0,4.7163865E-1,-5.134536E-1,6.891179E0,6.473881E-1],"split_indices":[4,4,2,0,6,0,0,0,0,0,0,0,0,0,0],"split_type":[0,0,0,1,0,1,1,0,0,0,0,0,0,0,0],"sum_hessian":[7.67E2,2.48E2,5.19E2,2.42E2,6E0,5E2,1.9E1,7.1E1,1.71E2,4E0,2E0,1.41E2,3.59E2,3E0,1.6E1],"tree_param":{"num_deleted":"0","num_feature":"8","num_nodes":"15","size_leaf_vector":"0"}},{"base_weights":[1.14368826E-1,2.0838556E-1,-4.6797695E0,-5.821539E0,7.469343E-1,1.2930076E-1,-1.5662644E0,-3.424959E0,1.2715183E-1],"categories":[9,11,12],"categories_nodes":[3],"categories_segments":[0],"categories_sizes":[3],"default_left":[1,0,0,1,0,0,0,0,0],"id":59,"left_children":[1,3,-1,5,7,-1,-1,-1,-1],"loss_changes":[2.615006E3,2.4951104E3,0E0,2.6858193E3,4.4409556E3,0E0,0E0,0E0,0E0],"parents":[2147483647,0,0,1,1,3,3,4,4],"right_children":[2,4,-1,6,8,-1,-1,-1,-1],"split_conditions":[5.6E3,6.4E1,-4.6797695E0,NaN,6E0,1.2930076E-1,-1.5662644E0,-3.424959E0,1.2715183E-1],"split_indices":[4,3,0,0,1,0,0,0,0],"split_type":[0,0,0,1,0,0,0,0,0],"sum_hessian":[7.67E2,7.66E2,1E0,6.2E1,7.04E2,3E1,3.2E1,5E0,6.99E2],"tree_param":{"num_deleted":"0","num_feature":"8","num_nodes":"9","size_leaf_vector":"0"}},{"base_weights":[8.723761E-2,1.23961E0,-2.5478327E0,1.667814E1,-5.6413436E-1,1.4231665E0,-3.903931E1,-2.03591E0,4.948317E0,-4.073941E-1,2.144266E0,4.33693E0,-1.7604764E-1,2.563028E-1,-6.5702977E0],"categories":[0,1,2,4,6,8,9,10,11,12,13,14,15,3,5,7,0,1,3,4,5,6,7,8,10,11,12,13,14,15],"categories_nodes":[1,2,5],"categories_segments":[0,13,16],"categories_sizes":[13,3,14],"default_left":[0,1,1,0,0,1,0,0,0,0,0,0,0,0,0],"id":60,"left_children":[1,3,5,7,9,11,13,-1,-1,-1,-1,-1,-1,-1,-1],"loss_changes":[2.3352537E3,1.490764E4,3.396395E4,3.932551E4,2.109231E4,1.8850316E4,1.0948379E4,0E0,0E0,0E0,0E0,0E0,0E0,0E0,0E0],"parents":[2147483647,0,0,1,1,2,2,3,3,4,4,5,5,6,6],"right_children":[2,4,6,8,10,12,14,-1,-1,-1,-1,-1,-1,-1,-1],"split_conditions":[6.4E1,NaN,NaN,4.52E3,2.5E1,NaN,8E0,-2.03591E0,4.948317E0,-4.073941E-1,2.144266E0,4.33693E0,-1.7604764E-1,2.563028E-1,-6.5702977E0],"split_indices":[6,0,0,4,7,0,2,0,0,0,0,0,0,0,0],"split_type":[0,1,1,0,0,1,0,0,0,0,0,0,0,0,0],"sum_hessian":[7.67E2,5.34E2,2.33E2,5.5E1,4.79E2,2.11E2,2.2E1,2.2E1,3.3E1,4.17E2,6.2E1,1.6E1,1.95E2,5E0,1.7E1],"tree_param":{"num_deleted":"0","num_feature":"8","num_nodes":"15","size_leaf_vector":"0"}},{"base_weights":[7.9148225E-2,1.7267205E-1,-4.6574855E0,-1.6709349E-1,8.824882E0,1.9981413E-1,-5.625818E-1,-2.6628182E0,3.2926738E0],"categories":[],"categories_nodes":[],"categories_segments":[],"categories_sizes":[],"default_left":[1,1,0,0,0,0,0,0,0],"id":61,"left_children":[1,3,-1,5,7,-1,-1,-1,-1],"loss_changes":[2.5851787E3,2.2562417E3,0E0,5.2461196E3,1.4545601E4,0E0,0E0,0E0,0E0],"parents":[2147483647,0,0,1,1,3,3,4,4],"right_children":[2,4,-1,6,8,-1,-1,-1,-1],"split_conditions":[5.6E3,5.05E3,-4.6574855E0,6.4E1,5.03E1,1.9981413E-1,-5.625818E-1,-2.6628182E0,3.2926738E0],"split_indices":[4,4,0,6,6,0,0,0,0],"split_type":[0,0,0,0,0,0,0,0,0],"sum_hessian":[7.67E2,7.66E2,1E0,7.38E2,2.8E1,5.24E2,2.14E2,1E1,1.8E1],"tree_param":{"num_deleted":"0","num_feature":"8","num_nodes":"9","size_leaf_vector":"0"}},{"base_weights":[6.31404E-2,-5.3657544E-1,5.3003654E0,9.412142E-1,-5.6011963E0,1.2124145E1,-1.0842634E1,5.172258E-2,6.341413E0,3.0271695E0,-1.6836934E0,3.855533E-1,2.9350622E0,-8.982659E-1,-6.5844502E0],"categories":[3,4,9,10,11,14,0,1,2,3,4,5,7,8,11,12,13,14,15],"categories_nodes":[2,4],"categories_segments":[0,6],"categories_sizes":[6,13],"default_left":[0,0,1,0,1,0,0,0,0,0,0,0,0,0,0],"id":62,"left_children":[1,3,5,7,9,11,13,-1,-1,-1,-1,-1,-1,-1,-1],"loss_changes":[2.4150144E3,5.1695386E3,8.833802E3,1.3886938E4,3.342487E4,5.2941777E3,3.407386E3,0E0,0E0,0E0,0E0,0E0,0E0,0E0,0E0],"parents":[2147483647,0,0,1,1,2,2,3,3,4,4,5,5,6,6],"right_children":[2,4,6,8,10,12,14,-1,-1,-1,-1,-1,-1,-1,-1],"split_conditions":[1.08E2,6.4E1,NaN,5.03E1,NaN,2E1,5.003E3,5.172258E-2,6.341413E0,3.0271695E0,-1.6836934E0,3.855533E-1,2.9350622E0,-8.982659E-1,-6.5844502E0],"split_indices":[6,6,0,6,0,7,4,0,0,0,0,0,0,0,0],"split_type":[0,0,1,0,1,0,0,0,0,0,0,0,0,0,0],"sum_hessian":[7.67E2,6.89E2,7.8E1,5.34E2,1.55E2,5.5E1,2.3E1,5.29E2,5E0,3.1E1,1.24E2,3E1,2.5E1,2.2E1,1E0],"tree_param":{"num_deleted":"0","num_feature":"8","num_nodes":"15","size_leaf_vector":"0"}},{"base_weights":[5.9585094E-2,2.658202E0,-1.1848673E0,-1.0693676E0,2.054073E1,-2.1432567E0,6.4861536E0,1.7006925E0,-6.752126E-1,1.0501496E1,8.558529E-1,-3.7618333E-1,2.6602464E0,9.416598E0,-3.2712665E-1],"categories":[0,1,2,3,4,5,7,8,9,11,13,14,0,1,2,3,4,5,6,8,9,10,12,13,14,15],"categories_nodes":[4,6],"categories_segments":[0,12],"categories_sizes":[12,14],"default_left":[0,0,0,0,1,1,1,0,0,0,0,0,0,0,0],"id":63,"left_children":[1,3,5,7,9,11,13,-1,-1,-1,-1,-1,-1,-1,-1],"loss_changes":[2.4867498E3,1.6619898E4,3.8368516E3,1.2150419E4,3.562192E4,7.914217E3,3.4617375E4,0E0,0E0,0E0,0E0,0E0,0E0,0E0,0E0],"parents":[2147483647,0,0,1,1,2,2,3,3,4,4,5,5,6,6],"right_children":[2,4,6,8,10,12,14,-1,-1,-1,-1,-1,-1,-1,-1],"split_conditions":[4.98E3,4.7E3,2E1,1.6E1,NaN,5.065E3,NaN,1.7006925E0,-6.752126E-1,1.0501496E1,8.558529E-1,-3.7618333E-1,2.6602464E0,9.416598E0,-3.2712665E-1],"split_indices":[4,4,7,7,0,4,0,0,0,0,0,0,0,0,0],"split_type":[0,0,0,0,1,0,1,0,0,0,0,0,0,0,0],"sum_hessian":[7.67E2,2.48E2,5.19E2,2.06E2,4.2E1,4.62E2,5.7E1,4.6E1,1.6E2,7E0,3.5E1,4.48E2,1.4E1,6E0,5.1E1],"tree_param":{"num_deleted":"0","num_feature":"8","num_nodes":"15","size_leaf_vector":"0"}},{"base_weights":[8.27721E-2,1.7764342E-1,-4.7244296E0,1.0355297E0,-3.10934E0,6.611001E-1,-1.149583E-1,-2.813182E0,-5.7188645E-2],"categories":[1,2,4,6,7,13],"categories_nodes":[1],"categories_segments":[0],"categories_sizes":[6],"default_left":[1,1,0,0,0,0,0,0,0],"id":64,"left_children":[1,3,-1,5,7,-1,-1,-1,-1],"loss_changes":[2.6603906E3,2.166051E3,0E0,4.739479E3,7.855556E3,0E0,0E0,0E0,0E0],"parents":[2147483647,0,0,1,1,3,3,4,4],"right_children":[2,4,-1,6,8,-1,-1,-1,-1],"split_conditions":[5.6E3,NaN,-4.7244296E0,4.98E3,4.45E3,6.611001E-1,-1.149583E-1,-2.813182E0,-5.7188645E-2],"split_indices":[4,0,0,4,4,0,0,0,0],"split_type":[0,1,0,0,0,0,0,0,0],"sum_hessian":[7.67E2,7.66E2,1E0,6.08E2,1.58E2,1.95E2,4.13E2,1.9E1,1.39E2],"tree_param":{"num_deleted":"0","num_feature":"8","num_nodes":"9","size_leaf_vector":"0"}}]},"name":"gbtree"},"learner_model_param":{"base_score":"5E-1","boost_from_average":"1","num_class":"0","num_feature":"8","num_target":"1"},"objective":{"name":"reg:squarederror","reg_loss_param":{"scale_pos_weight":"1"}}},"version":[1,7,3]}